solver_type L2R_L2LOSS_SVC_DUAL
nr_class 2
label 1 -1
nr_feature 44631
bias 1
w
-0.01061134127355655 
0.00803911354832133 
0.003283084975932656 
0.04253349570258369 
0.003552897212328275 
-0.04237393870536327 
-0.00889415559564392 
0.01771322653687182 
-0.002700194164863441 
0.01095154258632223 
0.00614484973403719 
0.04909867728517268 
0.01930609123250093 
-0.03855462916982259 
-0.005956894838165012 
0.00253016110011865 
-0.002527464248773644 
-0.02583733587369699 
0.004301673193162108 
-0.03535729291661743 
0.004221476349148183 
-0.01411641568311055 
-0.001503834760502483 
0.002758395026730611 
0.03038629484857024 
0.00391097235738191 
0.00902374847170196 
0.00614828356080778 
-0.0101664172771378 
0.0056711298353389 
0.003459470149260434 
0.004069503390028564 
-0.02395572650023046 
0.01071046386808496 
-0.02309234078430329 
-0.01603188290882978 
-0.01436714090286419 
0.01051492528670113 
-0.02298554437186722 
-0.008775493258855944 
0.02348395202273536 
0.01829838542759244 
-0.007384756968219846 
-0.01214906195195574 
0.003363714019499325 
0.004182450836300243 
-0.00792755273533003 
-0.01039231760185923 
0.007316162522551721 
-0.0124494434634207 
-0.003650918671231711 
0.01551527192298716 
-0.02308635414949078 
0.03122780342581619 
0.01076091731315742 
0.00359048029783077 
0.00786024393352739 
-0.01902334048748105 
-0.0113918909508763 
-0.003674278065515225 
-0.03017921686461137 
0.006158904129494522 
0.004502866456730794 
0.003046374145833732 
0.02855663840204664 
0.004598457453593163 
-0.04482995868925297 
0.0002142354811710989 
0.004598457453593163 
0.01965190033819503 
0.008271218254527058 
0.004598457453593163 
0.01893784583245682 
-0.01598143178968195 
0.01501323308966066 
-0.02355982217755649 
-0.007751236061406768 
-0.02775083669520057 
-0.0278451307355267 
0.01227692545541234 
0.00893641743714114 
-0.008680677095747678 
-0.008880798940217116 
-0.02024975833804203 
-0.006100753320388562 
-0.0104189853813697 
0.01518816178374012 
-0.01833021668454516 
-0.03782043889174035 
0.05179479084524885 
0.04414748364337613 
0.04846196033795645 
0.0032718831414276 
-0.0004551630786572423 
-0.03981346862776231 
-0.02151262726331492 
0.01048118142730952 
0.01146323399178999 
-0.03589082419365233 
0.01071156164831544 
0.005999633737191622 
-0.1013666864156571 
0.004598457453593163 
0.034824871431516 
-0.0902442281472093 
-0.0299359305592111 
-0.01560317093427679 
0.002744816960648371 
-0.02633832850945759 
-0.02621788262062437 
-0.01603258556236485 
0.0008461938380606436 
0.008042792621845943 
-0.02021760643591624 
-0.02556645780078891 
-0.01868923904952667 
0.007316950576547149 
-0.002591140456385605 
0.02208366625462603 
0.02616491892060967 
-0.005395762369082277 
-0.008759982373027516 
0.02044860817546315 
0.008184055785309698 
0.004446085670514903 
0.007883877525052855 
0.02433620421122485 
-0.0119610701166146 
7.912412445497079e-05 
-0.004197602081315286 
0.005997097946489395 
0.02020308002197129 
-0.03808576522746593 
0.03001795511410264 
0.005351559081853952 
0.02438631216033912 
0.06744113153248034 
0.02812808164334573 
0.004598457453593163 
-0.00474514664428005 
-0.02574801901593167 
-0.03729846486535397 
0.01212483583507069 
-0.00777489707293658 
-0.00837323397521183 
0.009368500821658427 
0.04494127640016275 
0.02754428915080286 
0.0335703922843797 
-0.009650366512484635 
0.0004881488400212791 
0.01649264131574731 
-0.009470879438112969 
0.008473590111025281 
-0.006999743017249361 
-0.00752024538134719 
-0.01284284324855781 
0.003907225966311017 
0.009196914907186327 
0.005004411029886884 
0.01391582423673717 
-0.02046635545865508 
-0.02828465589788137 
0.01057010850158767 
0.004598457453593163 
0.01290425065005804 
-0.02483132447944309 
0.004598457453593163 
0.005004411029886884 
-0.001066223364797359 
0.0141963490597078 
0.004577206215141186 
-0.007131516680378583 
-0.002698891584886155 
0.004598457453593165 
-0.05415624826663234 
-0.002214229214285781 
0.02338497191036551 
-0.00426538055396042 
0.000947004954497637 
-0.002356886877118173 
0.0377935120168317 
-0.004963570458276428 
0.007207487951605416 
-0.006730581071604558 
0.005571261737479373 
-0.01581073194848245 
0.004598457453593163 
0.01807625235464021 
0.004732783346366413 
-0.01141055299162166 
-0.03243369066387853 
0.000856940753923707 
-0.01282452884502191 
0.005571111522402549 
0.009196914907186327 
0.01575199649879099 
-0.0024117926253413 
-0.02940740999557065 
-0.005761355154721233 
-0.0005836798378480727 
-0.003939427473482282 
0.003236290270190891 
-0.007278252557166814 
0.02560979531356836 
0.000481150457297762 
-0.01689176339393492 
0.004598457453593164 
0.006468966592815872 
-0.02834923622043721 
0.001880641015241697 
0.004598457453593163 
0.01398497296733512 
0.006566357898097189 
0.02301081170848774 
-0.03529916409451628 
-0.001374456026299069 
0.004272716754541767 
-0.01070396559955162 
0.009339146494114037 
-0.009816267998838763 
0.02222612218215949 
-0.00397142317171971 
0.008771148136554207 
0.002067352396309528 
-0.001125476388451619 
-0.01184858471689403 
0.004268021140492587 
-0.05568427045486381 
-0.01546271525285108 
0.008526077547563789 
0.0001164461891421776 
-0.001438691667249497 
0.02953293860335987 
0.02910144558165031 
0.01666336088760893 
0.008248386451875676 
0.004598457453593163 
-0.02909554433814757 
0.01666577028589326 
0.00326341516869451 
-0.02024221269455947 
0.007358411267793223 
-0.06705637271758148 
0.02843528190018383 
-0.0409466546802098 
0.001325893454642931 
0.07131441057673088 
0.002186111459711536 
-0.006134131984106316 
0.01929233880404656 
0.004387718233157448 
0.004598457453593163 
-0.007749587465578376 
0.004598457453593163 
-0.01187584124678948 
0.01168914839825453 
0.005143614663605162 
0.01128603187306432 
0.004589594151811735 
0.01332109562581875 
0.004598457453593163 
0.01938620176729675 
0.009940794673304233 
0.009940794673304233 
0.03446342187068733 
0.05082868522599333 
-0.02225716170172835 
-0.01301888770189436 
-0.008099412016287368 
-0.004831239140003162 
0.03338586962176378 
0.0661902286177431 
-0.0122048487219018 
0.03434771754746779 
0.005796371805962422 
0.005567231691085812 
-0.04530031030787218 
-0.009133202019971068 
-0.001381279997403879 
-0.0288662546080023 
0.0007119971951853245 
-9.049349298677836e-05 
-0.0009926967228126072 
-0.01876906616675575 
0.004337568691138005 
-0.05477122224227648 
-0.002706428583361572 
0.002388364801772527 
-0.04252590358193863 
0.01527267471636257 
-0.01953996932678946 
0.05309420953357877 
0.004598457453593163 
0.004598457453593163 
0.03522577536769582 
0.001704365338396708 
0.05780742581354197 
0.01370188900412727 
0.08693307230184484 
0.006567677604706438 
0.004598457453593163 
-0.025566122228577 
-0.000764093762983658 
0.002521027675106307 
0.009857565816351114 
-0.002107231304644075 
-0.008986354520782334 
-0.008517193403459754 
-0.01548513853968873 
-0.0001343630848753363 
0.06000562736000315 
0.02955567249909216 
-0.02433724375257737 
-0.01741902453916376 
-0.02252634141060144 
0.05140176809705688 
-0.00410112859697486 
0.03160323626401056 
0.004278430484182272 
0.0003684432462988408 
-0.0614349201890423 
0.01707799888182694 
0.04088991001434256 
-0.006795991982718559 
-0.004157539182858419 
-0.02922856639230033 
0.06036999526786334 
0.01657936088588568 
-0.009550355341629298 
-0.03869114989839377 
0.01431633344273009 
-0.01337959561720166 
-0.01439605242937486 
-0.003099350879816234 
0.04444329521855166 
0.0005966432632582989 
0.004598457453593163 
-0.02178395477300813 
-0.005163163092235757 
0.01507347953660763 
0.01298556787047391 
0.0007133679770546983 
0.003713531941136788 
0.01036420930562988 
-0.005441191115067023 
0.01815186310409804 
0.002910324017617673 
0.004598457453593163 
0.009529446857255711 
-0.003751324690345901 
0.00936003979508334 
-0.0175550664937957 
0.003781195669243918 
-0.007818378597600064 
-0.0004973334311412399 
-0.004877135463481461 
-0.001344904325050928 
0.03116420076606784 
0.04785108600807435 
0.006161481639881394 
0.02150422450007041 
0.008150969811760986 
0.03956941766054675 
0.03272495042562749 
-0.03055333974937251 
0.004598457453593163 
-0.004429706572109064 
-0.002130582078943989 
0.01551828655031951 
-0.009244378954560201 
-0.004424806842486514 
-0.02310650426167534 
0.004598457453593163 
0.003541822085098147 
0.03620876668237077 
0.005763264372825583 
-0.03900169617974315 
0.02941128064162683 
0.009129706797831301 
-0.004595704327982482 
0.01623095892592623 
0.0267719854338041 
0.04752179124237547 
0.01345346753481992 
0.000706795027852033 
0.007928651643166765 
-0.008899471004044762 
0.004598457453593163 
0.007217436818133636 
0.002058851277491499 
0.004434157650233433 
0.009764112962790417 
-0.001255844474794749 
-0.001089329522349266 
-0.005556692525949929 
0.008382395864493949 
0.08531397112041124 
-0.003095378161339372 
-0.02081186143264762 
-0.0009221480300035545 
0.04879772527763634 
0.004138616828619614 
0.02243553991849875 
-0.006751797048228744 
0.01289400770132906 
-0.01566526024116123 
0.02116126688701779 
0.004052360881631156 
-0.04956093041210479 
0.008679363180522941 
-0.01098259045278153 
-0.02682539161391522 
-0.1435313554986477 
-0.002434289018577368 
0.004598457453593162 
-0.02119852956933206 
0.002892613241629084 
-0.01209436065269458 
0.009114951994213961 
-0.01015744290964389 
0.001596395912563182 
-0.02098034759305814 
-0.02936518160171095 
-0.0114136440170202 
-0.01285235333266917 
-0.01781600509124813 
0.01624433927356602 
-0.02288721841187159 
-0.00184734535302714 
-0.007587722452785941 
-0.0005346898418366781 
-0.01817616398979915 
-0.06582383430423461 
0.02150954253511035 
0.006323280608351392 
-0.01536744644919948 
0.005434036616362315 
0.003868333604754193 
-0.02348540730722879 
-0.004298958593577076 
-0.006733132180724369 
-0.0001480492906358048 
0.006912136177498878 
0.03260299975083718 
0.01817871385509658 
0.002375118947658565 
-0.01723904781348734 
-0.02395908266261028 
-0.02508508377995672 
0.00966705196660224 
-0.008234512673480764 
-0.06211077981614697 
0.0005161504875023121 
0.0131740922654836 
0.01498644726468308 
0.02487268791614176 
0.02301627231575041 
-0.02270122288876968 
-0.007399349962508773 
0.001240569589352139 
0.01535250638291017 
0.02030805376182573 
0.002717018308181158 
-0.0161541168040545 
0.02319997960462018 
0.00699360956456775 
-0.001095021162122305 
0.02616951696487992 
0.02357413538391494 
0.00422761975102051 
0.004698636210839638 
-0.02767755895843756 
0.002717018308181158 
0.0001711624256485125 
0.01795306707136875 
0.007100378947022224 
0.01688964612417438 
-0.006802469602220173 
0.006469270140787132 
0.03569846314888914 
0.01345797170333038 
0.01456787845745603 
0.03359904456106677 
0.01997947180827202 
-0.001831680483574494 
-0.05597243927568277 
0.02549422355571653 
-0.01589203689711704 
-0.006566403559372781 
0.01646083573166042 
0.003597678933117192 
-0.09636004188954858 
0.03140299043044392 
0.05509476397096653 
-0.001103928690953997 
0.006240554695709132 
0.002060898723708163 
0.03446284009378785 
-0.01191473424468461 
0.01414154984403945 
-0.02115164572218529 
0.02181977191278891 
0.0002476139016121022 
-0.01158693699941175 
0.001953164709951491 
0.06006272151594964 
0.01901912815726809 
-0.01262616207779047 
-0.003316118738578442 
0.008737187309273949 
0.04424684684266787 
-0.01430824590207004 
-0.04053867712263704 
0.01630210984908696 
0.00658237318994016 
0.01423496854893609 
-0.00885228003990705 
0.02108547165807776 
0.001524226942295877 
0.006070439150405855 
0.02362190262743777 
0.01662967667032976 
-0.01987008914856479 
0.001659597305956341 
0.0157551212920758 
-0.01238617274214629 
-0.02554476962497113 
0.009441428744467545 
0.04012700040647417 
0.01546550111951627 
-0.01930620927073905 
0.01991722026720177 
0.01393036204082829 
-0.001398882779645249 
-0.008639265487303406 
0.01169576010045114 
0.006388236542043978 
-0.000173669646849755 
0.005034531581910924 
-0.01682234611375487 
0.02315048408614464 
0.01740494710635473 
0.008950926094668481 
0.006187839461857257 
0.005434036616362315 
0.002321538192885874 
-0.04114902848347099 
0.01253855842290302 
0.04638328888962027 
0.00498640322545604 
0.01430615396060624 
-0.00593623979566564 
0.02694583942574815 
0.01422670833742712 
0.03177377192017435 
0.002717018308181158 
-0.004742304507326403 
0.01123023329114003 
-0.01818957566727575 
0.01937344026492693 
0.05312013112772054 
-0.01199627185769856 
0.06170601628294507 
0.02958325681895492 
0.007270837937590376 
0.005750120327009792 
-0.01924720344722576 
0.055012380839195 
-0.0180219038564808 
0.02036610682650588 
-0.004777892398840474 
-0.004891839189929904 
-0.003536142922603051 
0.007918574990500362 
0.008689646517242709 
-0.00997869560653594 
0.04791160372597558 
0.05016026948221471 
-0.0006410442609785 
0.001988767658280934 
0.005700784328921195 
-0.0007617177050541087 
0.03912088590444832 
0.002500905531223557 
0.02272529383961571 
0.002717018308181158 
0.002717018308181158 
0.07691210372573315 
-0.0341258968310536 
0.00666276645696888 
0.02061570638037852 
0.0314236564920464 
-0.004111879814091819 
-0.0005341906913738812 
0.0175505980950701 
-0.01503411464524791 
0.03427252031893117 
0.0198122635017171 
-0.01780707249761442 
-0.01123294723037242 
0.01285722996926808 
0.002717018308181158 
0.02773808816069106 
0.002538863184170907 
-0.01966453394766394 
0.113512048107265 
0.04125682103868629 
-0.02456909224653776 
-0.0007603928499016674 
-0.08281655220153622 
0.01486860438115188 
0.04127994375393281 
0.03998659311541596 
-0.04341409359865615 
0.01038460877462359 
-0.0005210166169655927 
-0.03535537841631092 
0.0003981984718052032 
0.004284386805435704 
-0.00594833285283681 
0.003339835108918047 
0.01983587035490848 
0.00614848788542716 
-0.003767925096580073 
-0.01810708360542761 
5.375935716180378e-05 
-0.02222642530990354 
-0.001157622437446139 
-0.04014622702573357 
0.01035558157778315 
0.003762540829268633 
-0.00297205641750725 
-0.03351828126612144 
0.002717018308181158 
-0.006792596457936671 
-0.09463619531595586 
-0.02851777746885878 
0.004945455336997227 
0.002717018308181158 
0.003994970476487242 
0.03872916845302418 
-0.004012774872279454 
0.002717018308181158 
0.01919973443300235 
-0.007462893157670731 
-0.01488019535821795 
0.01037479342188085 
0.05135530887497898 
0.01067889580171161 
0.007217230155619801 
-0.0266587241826446 
0.02806036495102124 
0.03354548457310898 
-0.0008166876649353309 
0.006113623777773659 
-0.001829183398479896 
0.03340043700016315 
0.02373058184040816 
0.01395650722012301 
0.01636475205053009 
-0.005885985702594622 
0.01041414239348494 
0.01910072693188518 
-0.02759993881405468 
0.02940816727715856 
-0.005019245176865707 
-0.0133422398741235 
0.01235332372190378 
0.009442866882209524 
-0.02044414912416063 
-0.004729274962421508 
-0.06541800163048489 
0.003169216921463423 
0.01488024010602128 
0.02767066431096256 
0.003216022128459159 
-0.01575094973322929 
0.01265924833240766 
0.004450032811852748 
0.01206804102713097 
7.35249467056262e-05 
0.01240397789911921 
-0.01657215012256643 
0.001160145729183845 
-0.01522320005285493 
0.004140861897526763 
-0.01316719874141441 
-0.02598616529767911 
-0.01842275178346324 
0.04400107407246816 
0.01489259099457729 
-0.02134805966446589 
-0.001933845357083171 
-0.04792955894732301 
0.005124830507887198 
0.01520878566074238 
0.01194659222566993 
0.004140861897526763 
0.004783595587343066 
-0.004039352316452593 
-0.004413219716023218 
0.0233504702629738 
-0.005375829486938714 
0.007184496704254934 
-0.03718975835761724 
0.07758668873075976 
0.005166358753290904 
-0.01748584086509287 
0.02147935017071808 
-0.02643202581784267 
0.0353409863819064 
-0.01452778896838504 
-0.01856270823743153 
-0.01165582442422237 
0.0006752923049575454 
0.006641229142038988 
0.003814119935606851 
0.01461395019738209 
0.01372132424193051 
0.006525793139461863 
-2.168885711638172e-05 
0.002216313582206846 
-0.0009239667009849857 
-0.02553636721739714 
0.01967620979563025 
-0.002819696414178851 
0.01402345468285549 
0.0006985100832516728 
0.004140861897526763 
-9.988103148869939e-06 
-0.02993334936574446 
-0.002386482685618873 
-0.007524876546258224 
0.01874521739066972 
-0.003570229255403455 
0.01131753582313709 
0.01777374780010685 
-0.003062571166318736 
0.002057464973049128 
0.03411154675412308 
-0.02224470257681619 
-0.01333694548643648 
0.01687811791550174 
-0.01134938196315506 
-0.006107445684659285 
0.05630363399298022 
0.011854492556845 
0.04071878377052592 
0.02155436064778366 
0.0193993521724366 
-0.01451276362933207 
0.002654022626307773 
0.03428505319506431 
-0.01262273684464679 
-0.0007712491389597117 
-0.01536570588487605 
-0.006785676445243912 
0.009634861226916317 
0.003622398810719848 
-0.0424549155219144 
0.003831750396194216 
-0.02087181508758895 
0.0167167198679149 
0.004140861897526763 
0.006367240454845025 
0.01888465815293044 
0.007524428603377842 
0.02738945095213875 
0.01670448475005117 
-0.02390031308270048 
0.003354924816330734 
-0.0001796207019269626 
0.01442465928850088 
-0.03922158325419684 
0.02171832153981448 
0.01101286058348093 
-0.0187516257260071 
0.003013119820923487 
0.0003325749381482566 
-0.03148075106298565 
-0.02841515159871543 
0.00374871096660154 
-0.002595941150114164 
0.01482972235273076 
0.0141487100824416 
0.02165205579262079 
0.02078656605494453 
0.04027758582901587 
-0.009308720798166806 
0.007609908509321409 
0 
-0.001184152311355296 
0 
0.009560622896398585 
-0.0167064065243978 
0.001189586796161058 
0.007865939059037002 
0.004135960403945919 
-0.01505358112203291 
-0.02505982190895142 
-0.02310950946260729 
-0.01717402106774156 
0 
-0.06809583345441102 
0.02415417987782401 
0.02512317197986728 
-0.001362573242687306 
0.01747202150826356 
0.01103385546278638 
0.006092033286765797 
0.02354773801067774 
0.008310321498957173 
0.03049870289848443 
-0.01759814472805362 
0.01551557443491597 
-0.01387892427473507 
0.0245010059404004 
0.01330630193359151 
0.00676512985897992 
-0.003570418978774434 
-0.005272785380625374 
0.006737436127866051 
0 
0.005571709969889907 
0.02737257740165311 
0.01938301655664527 
-8.507816601378562e-05 
-0.01134440591666776 
-0.04919708107975516 
0.04633630167716453 
-0.04411572154782226 
-0.0008850212249527453 
-0.01497751498624513 
-0.009718739331161883 
0.007915079160809246 
0.01189058807946903 
-0.02303568116849806 
-0.02108958824650416 
0.006360849800028528 
-0.01595500043835498 
-0.003176553051766156 
-0.03077755203047854 
0.01307823110947318 
0.04125260910576042 
-0.00721129974289681 
0.0092000278425831 
0.01801775699074034 
0.009082923557893313 
-0.00298978679666144 
0.01890696134152961 
-0.02569446955782944 
-0.005995621767329675 
-0.01420754386480524 
0 
0.007323425572962285 
0.01521219757705727 
0.004857982087359709 
-0.005822397258315653 
-0.0006753258308599637 
0.01703887780820775 
0.04628612046917033 
0 
-0.0003363559502972159 
0.0005965589599818833 
0.01105378117840524 
0.005993683631385879 
0.04059336985786213 
-0.02252797781356748 
-0.01899759641987347 
-0.001219315635164869 
-0.008519699992659339 
0.0395663973158152 
0.002724580223221998 
0.005071625445571277 
-0.009579729808395204 
0.01806033124911755 
0.01399663078442375 
0.01457079881079246 
-0.01139346039484512 
-0.003121912990786962 
0.0009068469464455296 
0.005241865144427286 
0.01992381546109936 
0.01271012087972063 
-0.01686666283364872 
0 
0.002423280095952924 
0.003289721137077879 
-0.005208311954622271 
0.0005769508221799219 
0.01561502059966012 
0 
-0.005955877017065661 
0.002681417592728622 
0.007926875730851282 
0.004794924771626309 
0.005803951150524813 
-0.01590596073845931 
-0.005937986657708226 
-0.008070002980263651 
0.002207755188117692 
-0.007364914615931609 
0.008961413182616403 
0.01359214440682316 
-0.04244094528764605 
0.001776735748381233 
0.03949663471218321 
0.003448136946456786 
0.008346266581448903 
0.01123013116989027 
-0.001776813070750523 
0 
-0.029374198197593 
-0.002940491714759462 
-0.0321798980866678 
0 
0.01666903650220597 
-0.003514744927715981 
0.0005697111769607699 
0.0007170668471135635 
0 
0.009085835752223295 
0.01410219567814472 
0.01807667326712866 
0.02044579407963737 
-0.007441258706498164 
0.002362450065031282 
-0.04430147026132829 
0.01165619020782352 
-0.04530781264637593 
0.02698796980263261 
-0.0195748085193216 
0.0435237700662367 
-0.01611990586169007 
0.04008942906664778 
-0.003637100360152854 
-0.05187516083442065 
0.01818820795905247 
0.02478732509024956 
0.0006376386956105621 
0.004420030045598539 
-0.009589197637002765 
-0.01716409979706629 
-0.0207544516261681 
-0.005319149226654202 
-0.0001180302625640806 
0 
0.005529869831596947 
0.006253878566680323 
0.04736521559266328 
0.009204607490654857 
-0.00636250934542377 
-0.005149526132224331 
-0.01031895837584716 
0.00760474735162498 
0.0146065651953684 
0.03671078672305856 
0.006869032592794574 
-0.002301239799811998 
-0.0002629294719424082 
-0.01425700918932014 
0.03471281295804181 
-0.006327214219719044 
0.003056725409083068 
0.0002393980751540766 
-0.01793714788493791 
-0.002398384603392082 
0.0351041654275825 
-0.001323253607786097 
0.0001465160761606171 
0.01560160213511337 
-0.001816461551032303 
0.0002709071630129472 
0.007191994017649901 
0.03738035417055655 
0.005671235229922469 
0.004971576939426074 
0.0339723770742474 
-0.03382322566156529 
0.008231046377806151 
-0.005449483161055553 
0.03291831945294887 
-0.01723329753119218 
-0.001546489932480795 
-0.01451966596690868 
0.002649625077494473 
0.02585174396203635 
-0.001082462739024728 
-0.03284622042168976 
-0.0006786471663144772 
0.0285656183984744 
0.0186029670529883 
0.01906587056791463 
-0.0003596795732353472 
-0.03633409801759503 
-0.02284580570493376 
0.002413636762324869 
0.01552163915173889 
-0.01203236914036591 
0.01369483991236164 
0.01181195924448628 
-0.001852016570175856 
0.001979439170299915 
0.04676553751742314 
0.02505201660564017 
0.04608816437656586 
0.003063917445469764 
-0.01054174497117837 
0.005883643028533752 
-0.02857411243119184 
0.06495504963146932 
0 
-0.002285149468527221 
0 
0 
0 
-0.002994462310988485 
-0.002446919206481784 
0.03390532665870161 
0.02700436034265086 
-0.005371505664028546 
-0.03430694588410076 
-0.01623632167182811 
-0.002702763994314298 
0.001461930191437694 
-0.009731411156102843 
0 
-0.007656444091638177 
0.00621338547461 
0.02332206879021105 
0.003185730285949896 
0.001701165940341317 
-0.002450930154249039 
0.001277952168306097 
0.001964880503720641 
-0.0449030907379007 
0.00355082947891211 
-0.0006557066647756768 
0 
0.01715448254374894 
-0.003722585644137225 
0.004467053032159541 
0.01396470896039767 
-0.01447639644239925 
-0.01198122928039506 
-0.002628836067954557 
0.0003491934537774808 
-0.003189975191065805 
-0.01373114009728238 
0.01175138049476954 
0.01220645547008164 
0.01112910529715043 
-0.0347688747060567 
0.003968690083402124 
-0.003334190395359485 
-0.0174409023536836 
0.0552019965814209 
-0.0001710621610809631 
0.01417225520976599 
0.006574281992227333 
-0.03781580999656999 
0.01298633574891486 
0.06628434266146149 
0.0008310032203582948 
0.01030812889520278 
0 
0 
0.002472210278550412 
0.03564629898646884 
0.009665691033930751 
0.05549104785161193 
0.04538025833307033 
-0.005843546067931604 
0.01058170417960915 
-0.02161436334134295 
0.01380339413264496 
-0.004947645889367881 
-0.001804638914063379 
0.01543761492620457 
-0.002883762521459569 
0.01864719177339696 
0.01049211532563732 
0.01050345300485731 
0.0123581948827664 
0.01428979318105677 
0.002773201124684451 
-0.01531943277836811 
0.006774945859797685 
-0.01589803751500113 
0.006004380975647417 
0 
0.00476745607062474 
0.001838842387026933 
0.01195901744213533 
0.007796008788607228 
0.01115752344028457 
0.01645374771046876 
-0.001002814515158297 
-0.02145427076592148 
0 
-0.005989032429221072 
0 
0.00290781334620005 
0.03814426445192537 
0 
-0.002512272217007692 
0.01713123043584211 
0.04811975553409419 
0.003927196773407654 
-0.0003473554569987669 
0.003378059769881628 
-0.001554245743841941 
0.00369625739749766 
0.02683642839093949 
-0.003830741405324105 
-0.01237961991031842 
0.010723559171021 
-0.0007541829251111153 
-0.0001208064026691094 
-0.02533095673601234 
-0.003869377983264557 
-0.01399167406838841 
-0.002593806316078946 
0.01432576398700084 
0.006131178483738514 
-0.02293441623273349 
0.0001556188108649218 
0.003145822803414667 
0.004409646354127905 
0.0183791242434883 
-0.002809113659151847 
0 
0.04040364017086039 
0.05588395563495824 
0.00324415312093923 
0.03518281292228628 
0.03407709595124619 
0.00499369619596335 
0.00441750707781632 
0.01509494932192372 
0.002402291743628484 
0.001094214013998128 
0.02130632546263957 
0.002402291743628484 
0.006727393777395571 
-0.003406944588317253 
0.01472207709426236 
0.002402291743628484 
0.004804583487256967 
0.004334148733572955 
0.0128243805951575 
0.002402291743628484 
0.002402291743628484 
0.002599924751294573 
0.002356660855201247 
0.01001566665974735 
-0.02067365887722805 
0.0001755755224277443 
0.0007274695178424254 
0.00588954141060944 
0.007792189811133893 
0.01133198812709154 
0.01225153037221783 
0.002402291743628484 
0.000622906625130125 
0.01167963127785537 
0.001934580841787027 
0.007186822102537267 
0.03571200354851044 
0.03961435996065427 
0.01718698821363964 
0.008310979540044471 
0.01727558607548446 
0.005877675271064601 
0.0125664338603236 
0.01150103616552827 
-0.01905475069772806 
-0.005320679016347578 
-0.001387562216377966 
0.01160152619556877 
0.003139421195488226 
0.0105809529276809 
0.01142942764548977 
0.002402291743628484 
0.003711769648914402 
0.004060954217327642 
0.007088130754828875 
-0.003433825055444201 
0.002402291743628484 
-0.007306779827141541 
-0.01429525823957115 
0.02662648668461269 
0.01662871830025629 
-0.004481810824271633 
0.005935605923554681 
7.759601884805759e-05 
-0.04756445432991412 
1.913144498444971e-05 
0.001338431879498197 
0.04841797233212686 
0.002402291743628484 
0.002402291743628484 
0.005062501436741761 
0.007128690502639146 
0.030298572866806 
-0.02508367622179913 
-0.02508529900976448 
0.01425527794639019 
-0.01040164905562704 
-3.064415458272165e-06 
0.005930317868559363 
0.01642261903705664 
0.003636341361293198 
0.00720857413851218 
-0.004519842359270854 
-0.01591082254510495 
-0.005428362729264581 
0.0007141942638241501 
0.01611437828280839 
0.04860435881564277 
-0.005162180791251364 
0.02592732701067583 
0.002402291743628484 
-0.002952300534512822 
0.02225215111425901 
-0.01255661496021529 
-0.01101197305274812 
0.001290541168943864 
-0.02104396500043149 
0.0240267257017822 
-7.344310403947655e-05 
0.00135108094659909 
0.02628808623066205 
-0.008495651887069366 
0.01060431564098227 
0.0005988325660702216 
-0.00617667635193272 
-0.002542924369110977 
0.002402291743628484 
0.01662410571413334 
0.003713755234294629 
-0.00982567646461998 
-0.003738813951489941 
0.0329080011741146 
0.008635261273526077 
0.002402291743628484 
-0.001923946263632496 
0.001959863003876502 
-0.001757314349913851 
0.0001946344434354116 
-0.03490348313865772 
-0.01634054644288607 
-0.001883420870749415 
0.02243576670841508 
-0.0008647506528426294 
0.003662930556859179 
0.009042265242483725 
0.001908351787168809 
0.006024610501104782 
0.002402291743628484 
-0.002069126720711225 
0.002402291743628484 
0.008710838952508085 
-0.07068027184378751 
0.01670379139997208 
-0.02673159691605672 
-0.02992383465223603 
0.002402291743628484 
0.006544982084637168 
-0.004386163082288015 
-0.004830813428593377 
-0.001958856362526617 
0.02765993255845287 
-0.00861126093165402 
-0.03322757207432479 
0.04571716036298846 
0.002402291743628485 
0.01277931639107931 
0.003247722711590552 
0.06047380970262502 
-0.01063410182245973 
0.002402291743628484 
-0.003947318604764804 
-0.01032463424549766 
-0.002786449280857123 
-0.0005236413460021432 
0.002394967313440098 
-0.0001495939448852977 
-0.009395034111933475 
0.005000300902588603 
0.008201206633356764 
0.00117672162624592 
0.002402291743628484 
0.001816951042476759 
-0.004004209148670484 
-0.06116265283131438 
0.002402291743628484 
-0.0004503002116229207 
-0.003183515596893435 
0.002402291743628484 
-0.0005867744536624071 
-0.005745306376660408 
0.002402291743628484 
-0.008570282116667603 
-0.00510946784479065 
0.0009171067870522655 
0.03183258029429987 
0.0152704752692149 
0.01433140300185513 
0.02349619652934424 
0.001047453874467735 
0.004860923483301422 
0.001204343938599863 
0.001504253524753415 
-0.001819298495269547 
0.003547483828403546 
-0.004039952132907692 
-0.005891645555787792 
0.002402291743628484 
-0.006628151290872195 
0.002402291743628484 
0.008897291649657236 
0.01061632818096641 
-0.001942889177675252 
0.05452791444157106 
-0.0516580907869542 
-0.007283703122034402 
0.003897127211602468 
0.003624985170987328 
0.002910446700287767 
0.008341179282318843 
0 
-0.001256158585783863 
0.001917779849809496 
-0.01857130342191076 
0.00283349101113976 
-3.402521254392417e-05 
0.01789913827938024 
0.01614603675639513 
0.003589492211869074 
0.02380613119008992 
0.01860502027303368 
-0.002264978464569198 
0.00186728694283078 
0.0001526948429328007 
-0.01429822512083062 
0 
0.01410671896067112 
-0.002903505630465915 
-0.01560894159141425 
0.02867256431373545 
0.006002672541532414 
0.002651605717129403 
0 
0.003793041487671873 
0.002729206829228789 
-0.007806623939158602 
-0.002876268907314653 
-0.0015511986944917 
0.02157057583202883 
-0.01268391816622245 
-0.0242900085986358 
0.004194975825800829 
0.01493829554264624 
0 
0 
0.007469147771323121 
-0.003956770670092279 
0.01833937695837927 
0.02033545827812508 
-0.002817305688951998 
0.0004549018283542292 
-0.004166008988589242 
-1.694065894508601e-21 
0.01264893504156941 
-0.001315665212410705 
0.009217678836154179 
0.007861860827092729 
0.007359298681516887 
0.01209719159980929 
-0.01171754213508116 
0.007764369533062937 
0.00186728694283078 
-0.01562696559406195 
-0.003986210450472536 
0.02011268825481781 
-0.0316298134078592 
0 
-0.01162895514083299 
0.02253583485720962 
0 
0 
0 
0.004997366732680748 
-0.001250891075905255 
-0.009586939106929586 
0.004986579915258455 
-0.006088375916271106 
0.0157163863742497 
-0.002474403721579546 
0.01547558395215034 
0 
-0.00723149986570476 
0.04949843201003533 
0.008165213526750328 
-0.004275929103378751 
-0.01505843667322377 
0.03232586489206281 
-0.02168861561248696 
-0.007589151584695029 
-0.008341237300755339 
0.006964114022472388 
-0.001098278466941296 
0.03669535199012929 
0.003049005336925596 
0.00186728694283078 
0.01007504770079137 
0 
0.006353123498047714 
0.00204336794014318 
0.001022999058931697 
-0.01215910636257775 
0.02005427641934471 
0.007103597823237355 
0 
-0.01172099208431889 
0 
0.001409937386466363 
0 
-0.02546130948527358 
0.0002415126633718116 
0 
0.002655977959014683 
0.0153127317212461 
0.0153459464908107 
-0.03533809243789789 
0.003140731665305161 
0 
-0.0002859596193704891 
-0.00975052834256666 
0.01293213707980362 
0.0005605847794798529 
-0.01538000807717514 
0 
-0.01042718549807797 
0.00186728694283078 
0.00186728694283078 
0.00186728694283078 
0.00186728694283078 
0 
-0.01218687016301934 
0.003687495090593609 
-0.02132569350501167 
-0.005990633474463487 
0 
0.008021998213989433 
-0.02432058516945865 
-0.001409574415318061 
0.004849139469351877 
-0.002825538858262623 
-0.01611920631882779 
0.001565554931469586 
0.02476631810799813 
0.0004813712498087035 
0.01108084244429898 
0.01524502831535094 
0.01746411855637047 
0.002304329231903918 
0.02519440275588664 
0 
0.01872441187503644 
0.003266428594093998 
0.01722935544579614 
0.006006925802108647 
0.002684852949209658 
0.004970673454021163 
0.0005752836848399442 
-0.006564954212627566 
0.003123692378368543 
0.006480197912868919 
-0.01899875434179788 
0.02785101124503613 
-0.0005321440336949 
0.001356948206549797 
-0.02363701191366038 
0.002645212105472065 
0 
-0.007677763071064574 
-0.02220602099090895 
0.00597419336453923 
0.0004019419763895949 
0.01554189561779373 
-0.01258616661798669 
0.0005981836220188565 
-0.005272821575401581 
0.00186728694283078 
0.00186728694283078 
0.02798474517036885 
-0.0168314071124801 
0.005523193745397141 
0.00186728694283078 
0 
0.00186728694283078 
0.0003824658678075469 
-0.01154064733593664 
0.001244907344063097 
0.002105523999405731 
-0.001945082369636239 
0.01806680278122284 
0.02015801014795722 
-0.003620197925095683 
0 
0 
0.004947752864001011 
-0.005752968899699278 
0.0155993849878416 
-0.01755625455851423 
-0.001218656310215532 
0.01551550830220838 
-0.01428894184422634 
-0.07703185497283957 
-0.009079228392354912 
-0.03393881656033115 
0.01941588529035138 
0.004686174236975133 
-0.008227834136956685 
-0.003738059443072885 
-0.0007169512002305649 
0.000925092279870977 
-0.01238336358201423 
0.01079775856268238 
-0.00802550143717988 
0.03782157762324317 
0 
0 
0.001186115824802968 
0.005353879864599684 
-0.005436455157672286 
-0.04594827638707926 
-0.02051340000310003 
0.0003012503165797745 
0 
0.0135857737138 
-0.02885332161392577 
-0.02286201377685763 
0.002825668149698879 
0.004442994015456817 
-0.03478434793946582 
0.0006867263897182714 
0.006890807089737494 
0.001225926147311508 
0.004237590091433316 
0.004461787079392619 
-0.008247111433704383 
0.01493873473740999 
-0.01551253235554953 
0.004594497178435186 
0 
0 
-0.009494747272312207 
-0.02335320419128542 
0 
0.0131955503803883 
0.004309127881327635 
-0.02591741069653297 
0.02062494540468065 
-0.00342124097666712 
-0.008334226746622226 
-0.001228826473655165 
0.02080533591800122 
-0.003977202254961379 
-0.002833105986446673 
0.008886190308369799 
0.004828798760606344 
0 
0.006099020349450443 
-0.004117792425068993 
0.009963943381011541 
-0.01159532988176811 
0.02372305815135127 
-0.004573909883257292 
-0.005742304023618888 
-0.007624962279749053 
0.002881088034840603 
-0.01128147042132407 
0 
0.02895699149446419 
0.003426550638299472 
0.04716461794121644 
-0.01092344992615539 
0.003645493858831052 
-0.009832622253630694 
0.01945194378525288 
0 
-0.06574342371974146 
0 
-0.004809327661399031 
-0.01147327702966095 
-0.02072289443579544 
-0.001232579989012324 
5.421010862427522e-20 
0.003420379663017095 
0.008969266360547779 
0.05480719566316648 
0.06384942870884157 
-0.01577253005596142 
0.006725058681490597 
0.00116253010666576 
-0.01551575407573657 
0.002374296710134874 
0 
-0.01615905928236698 
0.0007854946471160835 
-0.01059323831684976 
0.01471317239930796 
0 
-0.002168171300610464 
0.001089613854767251 
-0.02206621755572558 
0.007196670248169864 
-0.003020267402398368 
0.03119342494262778 
-0.007561263109629133 
0.006341670684099741 
0.005930949676168688 
0.02369115920899464 
0.04282058091492386 
-0.02069715393603777 
0.0001848562416398521 
-0.05479956866539781 
-0.02579819334532724 
-0.003804449978918973 
0.01157077219397779 
-0.006768075305415597 
0.009962873593361591 
-0.002198624329584137 
-0.001192050371125963 
-0.002821317487698392 
0.02145978686812207 
0.006550197298457247 
0.001248127686651765 
0.01243943108002014 
-0.000411849268753229 
-0.01028041613273003 
0.01105608615604166 
-0.0116895939876155 
-0.0339533360215121 
-0.003528662446049009 
-0.0112481805169111 
0.01418112453949039 
0 
0.002453794335373568 
-0.0146968257106188 
-0.001781963803531815 
0.01845099836958207 
-0.0622440957180007 
0.01053689934113719 
0.0002981150932167274 
0.0004615914360492129 
-0.008637285273430289 
-2.710505431213761e-20 
0 
-0.01758118431940201 
0.006687574419471142 
-0.01617225632514068 
-0.003883549490711578 
0 
-0.01967160773505769 
0.002287219890118926 
-0.01777107933342796 
0 
0.004744092123468556 
-0.009253418768541591 
-0.004444098963650314 
0.004501784743501623 
0.0009914766970146203 
-0.0004135035774995838 
0.01560608991006883 
0.01610068694259133 
-0.001160990758106498 
0.01098029699497501 
0.004623965599426775 
-0.06518779323262246 
-0.001982411842620182 
0.03853150460645894 
-0.01006464054291736 
0.008075503135976192 
-0.00738239919592283 
0.0001794839802159888 
0.0149745256004992 
0.004530154629695663 
0.002185498411267528 
0.0002910848248868733 
-0.001730142482866259 
-0.0004822891477690583 
-0.02119137232665078 
-0.005365277557366093 
-0.001041889988769359 
-0.01522967698379076 
-0.01020412894670698 
-0.01043963835621316 
0.003541084587288426 
-0.00864719713782534 
0.01089010897804419 
0 
-0.01274468851012666 
-0.007141859565786607 
-0.00998075927810785 
0.01181222963199894 
-0.00309684678333349 
0.0003367865829939279 
-0.03380980801463523 
-0.004168095587568739 
0.001965320469757839 
0.005002610398550452 
0.007741895259113441 
0.03038922490690529 
-0.005056464726665121 
0.004117109195372601 
0.009182712029274925 
0.007376057991182476 
-0.005409502258424259 
-0.00714720874091476 
-0.007142311142883681 
0.005861367634443618 
0 
0.007965010695590351 
0.006741388544458046 
0.01276111504352566 
0.00372940009962129 
-0.00709937060048008 
-0.001344157340050706 
-0.003292302842955411 
0.008892599194695292 
-0.002269532767089812 
0 
0.01399210884905044 
0.06546181039858454 
0.008053882322230326 
0.02946890059887294 
-0.000981776534360724 
0.003059088115352223 
-0.008660356728408914 
0.01351816586996024 
0.003994617100530638 
0.03813653085930724 
0.003927837152992255 
0.01343735084087382 
0.005261539122732479 
0 
0.003852527822960271 
-0.007718651688162976 
0.007286891361319313 
0.00589126969219802 
0.01177493996889283 
0.04182287881448863 
-0.02193315033738188 
-0.007707252969487413 
-2.710505431213761e-20 
0.005667901024273307 
-0.004436772293945112 
-0.02823698222061577 
0.001363982674393279 
-0.001625460378216491 
0.0008456041988957413 
0 
0.01841092390528188 
-0.0007321877318200719 
0.002949946542688555 
-0.03227290815001502 
0.01393241016114587 
-0.01181994440602447 
0.01399016709863879 
0.001680849536494415 
-0.02995298307720214 
0.02595131532305353 
0.01727407661770433 
0.01241032052212621 
0.0279828664567044 
-0.001012525444498519 
-0.006510235451371058 
0.03245434654325148 
2.656435159142982e-05 
0.0003698726371822356 
-0.008144471711063389 
-0.003115704191799457 
-0.004295685702656274 
-0.00913949025255701 
0.009817711117846219 
-0.01683775887470775 
0.01774196139938383 
-0.01803823594899624 
-0.00253181606965626 
-0.01941183360315146 
-0.00368946584937216 
0.01896148708335676 
-0.01169499035973015 
-0.007333481736355275 
0.001432792070337039 
-0.01151269114811979 
-0.002326679043730715 
0.03788395229868077 
-0.004231309525384385 
0.002330364489026078 
0 
0.00102885178433447 
0.01769862793644114 
-0.01019336706754429 
0.0002641336819579636 
-0.004278996934454119 
0 
0.005069500012317912 
0.02915947967171157 
-0.01205530622529752 
0.08095551176168446 
0.061130151754157 
-0.01229941384549382 
0.02192616325454404 
-0.004782521183716927 
0.002493557776742523 
-0.02928972608429526 
0.004248787832022671 
0.02211423430856777 
-0.04189253774210769 
0 
0.003449188881740781 
0 
-0.02203129333874211 
0.02866969984297819 
-0.00661844075050674 
-0.005346724180189298 
0 
0.01616291599861745 
0.007390231150150871 
-0.0004207659336505609 
0 
0.01045055673881732 
-0.005028739703442402 
-0.06229388197079488 
0.007482210087625367 
0.009524843063824624 
-0.007209547379486319 
-0.001498245776452629 
0.01496494019733117 
0.03957983351471676 
-0.0006127660350377466 
0.006138300005502443 
-0.007279887200149345 
0.01141624148530261 
-2.032879073410321e-20 
0.007615921963044154 
0.04326540043576416 
-0.001127210035335458 
0.03624182316131468 
-0.00334668597165815 
-0.00215975484794577 
0.004488763246985957 
0 
-0.0007933437538440342 
0.007709028899211779 
-0.002187579792549229 
-0.005292424646279848 
-0.004598897972156952 
-0.008068568885573373 
-0.01713388093855103 
0.01652965317599993 
0.0100026572318898 
-0.000857929872929635 
-0.004596016571600496 
-0.0003251457517952611 
0.009400943044978625 
-0.0003342431672372913 
0 
0.02481002002017804 
0.0009286109362768294 
0.02612360288539222 
0.002161738033721523 
0.02457177831260851 
-0.003988658125617916 
0.0176770873959254 
0.008794875254840767 
-0.003539314251349193 
0.02092894869436831 
-0.002569980663143708 
-0.001533558707187368 
-0.01335295597681827 
0 
-0.005821234571858253 
-0.003341751176970812 
0.001094735389456828 
-0.0003564255735718415 
0 
-5.421010862427522e-20 
0.01305973301232011 
0.0005451572100120002 
0.01074589227689657 
0.01792002101985072 
0.006177940219488386 
-0.006970972722067281 
-0.01583662260012522 
0 
0.003684291796387916 
-0.001330664887116126 
-0.01474998033355568 
-0.007392211860364675 
-0.007372714041843746 
-0.01494610442652431 
0.004025185033505755 
0.01452855243833201 
0.007968170045905077 
0.006452034265897907 
0 
-0.03548089276536011 
0 
-0.002404214221967673 
-0.03212692505310201 
-2.710505431213761e-20 
3.050175696410565e-05 
0.01019586153093512 
0.0025536524605148 
0.02989481225548615 
-0.002911347916430076 
-0.006196518457020336 
-0.004793964665645751 
0.000746612888349329 
0.001817189861649821 
0.03009320257277288 
-0.007115920852529097 
-0.01271630817583783 
-0.02491326113671925 
-0.00301835432827279 
0.004739375796281114 
-0.01022915599654786 
-0.004439864529665305 
0 
-0.04168532572691518 
-0.01814524399588193 
-0.002076379126250959 
-0.006042029215759148 
0.008480873437733145 
0.05054671288077232 
-0.02064964366463262 
-0.05487135740979862 
-0.007323882386351429 
0.003471549285298242 
0.001585786324943545 
-0.02905718249776548 
-0.01840063643033519 
0.005196482488711079 
-0.003449499660770602 
0.05484354456763275 
-5.421010862427522e-20 
-0.005580445633984876 
-0.002895315687893853 
0.002092383384087722 
-0.005691159151614005 
0.00186728694283078 
-0.003530465340363878 
-0.005242132847385393 
0.00465618760087087 
-0.01580487033406765 
0.007316638597297943 
0.00373457388566156 
0.00186728694283078 
0.00186728694283078 
0.00186728694283078 
0.008394309158215485 
0.00186728694283078 
-0.003604108828048479 
0.004279202622757194 
-0.006678592324389136 
0.00186728694283078 
0.00186728694283078 
0.00186728694283078 
0.007606413035715158 
-0.01211705940312883 
-0.0007231594533160412 
0.001580467987908141 
0.00186728694283078 
0.01563937738077429 
0.004358702916908265 
0.006258041344235851 
-0.00320127108064937 
0.00186728694283078 
0.003759089924253286 
0.00186728694283078 
-0.01356222304477366 
-0.04496156856679095 
0.001623046731797808 
0.005835977026232902 
-0.004553431316141882 
0.00186728694283078 
0.01056066984197576 
0.003211882086561798 
-0.0218902417220101 
-0.006573369023091694 
0.005334421400167082 
-0.02655157820461468 
0.04828394124994221 
-0.07931411981926297 
0.00186728694283078 
0.00186728694283078 
0.00143082009521998 
-0.003270226207462573 
0.006168342854884911 
0.01001099580171448 
-0.01501835613645649 
0.01018853399266578 
-0.0001226853682696068 
-0.1354110038842889 
-0.04034772680238184 
-0.02644950230730687 
-0.0111660911738651 
0.00186728694283078 
0.004466484420723163 
-0.003140922372154887 
-0.01301411281936253 
0.002528388904827654 
0.009878764635339005 
0.0003973623919994779 
-0.006093764007172833 
-0.01012659714894017 
0.04140973177010257 
-0.03995160469447494 
0.0002355132041889188 
-0.005686782038946346 
-0.005794512995837445 
-0.00567904504332933 
0.006226641415701098 
-0.001653626979041853 
0.002745074103078843 
0.0004493903454615676 
-0.009481314506931186 
0.005339757805918766 
0.001466097448568829 
0.0004493903454615675 
0.0006696311895369684 
0.002773844157448762 
-0.02013582005874527 
-0.03055773559507157 
0.003740240952832273 
0.0004493903454615675 
-0.02081272451073042 
0.003213180580213523 
0.003213180580213521 
0.03891548345009558 
-0.01147910619344097 
0.01212894913378418 
0.004769582888466398 
0.002546684412597854 
0.01741657765355142 
0.01452262724740566 
0.0005831753871856346 
0.004020033010858543 
0.03128048187157503 
0.01234886718593031 
0.02310445120161277 
0.03031842189176187 
0.002801874776428127 
0.005066078937895161 
0.00304739950442168 
0.0009254037628959321 
-0.004433250908337129 
0.01154871537567898 
-0.01112770673483847 
0.01916896813814649 
-0.007545332400642982 
-0.02337924933238391 
0.005596181481832099 
-0.02782177683281763 
0.03471053478148436 
0.002037481458854119 
0.006801567601544475 
0.002624995030704494 
-0.03146723426396901 
-0.00605681930358251 
0.04275637900025551 
0.02524399033147284 
-0.0002116861709924417 
-7.280843726749607e-05 
0.01062318875059253 
0.0004493903454615675 
-0.005451045070204847 
0.004467098789137763 
0.002100019582848179 
0.0004493903454615675 
0.0004493903454615676 
0.02270625781792587 
0.0004493903454615675 
0.0203998963842 
0.0004493903454615678 
0.0004493903454615675 
0.005660155876043951 
-0.01636655149399403 
0.008750886604658252 
0.007637905270869657 
-0.04976765550462903 
0.0131457855985698 
0.001348171036384701 
-0.03554748133816919 
-0.01289718333453357 
0.003843698652560962 
0.01530393443559191 
0.02472623589669083 
-0.01341415140497414 
0.0004493903454615675 
0.0004493903454615675 
0.0004493903454615675 
0.000449390345461568 
-0.007768118969022271 
-0.03432263461841795 
0.01847054263537634 
0.00278010020410002 
-0.001136103443021731 
0.04493262045326026 
0.0004493903454615675 
-0.06452843307561931 
0.0004493903454615675 
0.0004266211845460678 
-0.01055454913464037 
0.02167667693416159 
-0.0009036468021893328 
0.003902401033033194 
0.0340882049209041 
0.006508046715021833 
-0.01962934116931865 
0.008173864781501321 
0.0003204535258632049 
-0.004219911119753093 
-0.008177780046663558 
0.04422392722383309 
0.002101408695667103 
0.01076425340698687 
0.001691398933821387 
-0.01091404185599906 
-0.005532021995702198 
-0.01626767629279513 
0.006705859418795005 
0.003834184213686843 
-0.0244169107557542 
-0.004896120115436859 
-0.006084177022627862 
0.0125312395692836 
0.04029746779259429 
-0.002621752571662079 
0.002170934950180446 
-0.01051116259319635 
0.007721485109503424 
0.0004493903454615675 
0.0004493903454615675 
0.0004493903454615675 
0.0004493903454615675 
0.00585206251982362 
0.008055866014204056 
0.005110674095850767 
0.006571884984661078 
0.001677283053610376 
0.005252120018376398 
-0.0005620306222997051 
0.01524758869222155 
0.01110613484933505 
0.0002894421643847984 
-0.0284991169990531 
0.0125294279474747 
0.004317610963136428 
0.007402413135785982 
-0.01647149701057395 
0.03421059039249673 
0.009180688190580382 
0.030648188506486 
-0.002414339471589028 
0.007618373283452473 
-0.03003163479530507 
-0.02927346549653072 
0.004935312582222862 
-0.0009106651481308419 
-0.008897290189898054 
0.001398636569252789 
0.0002894421643847984 
-0.01111298582198685 
-0.02006416049741693 
0.007774318322577026 
-0.00371850674144997 
-0.01263539070643099 
-0.0007534272196549832 
-0.01434801978098453 
-0.002702120176216075 
0.0002894421643847984 
0.01100441446631735 
-0.001258605193322034 
-0.01166796106406499 
0.0004432797701466518 
0.0002894421643847984 
-0.003637172762034445 
0.008653472228107938 
-0.01123157527009783 
-0.01754316034876582 
-1.669168722409886e-05 
0.001441983630811341 
0.001194676724900222 
-0.002429394888098334 
-0.007652586101549185 
-0.009880653091504332 
0.003071172525917906 
0.0002894421643847984 
-0.006609304190038664 
0.002049086574604279 
-0.006751305936602884 
0.02055807913166642 
-0.01365526421137254 
0.0002894421643847984 
-0.001817587051939659 
0.008252434391988091 
-0.005790277285019577 
0.0001997448083534947 
0.006910983489890533 
-0.005346008504998766 
-0.005922388384917176 
-0.004029617036092868 
-0.008692077507150699 
-0.01401947560543575 
-0.001255291585021 
0.008837734211830303 
-0.03884344127313883 
0.0002894421643847984 
0.004295710114250322 
0.02052360116644444 
-0.01713391248855826 
-0.007939168290772373 
-0.002926044453101936 
0.006952362595467351 
0.01029134893883747 
-0.005616130130422101 
0.01618235869157462 
-0.006764515106658015 
0.002267575491594317 
-0.005575090223384069 
0.0002894421643847985 
0.004715329729008175 
-0.01206716420057286 
0.001089000203107263 
-0.0003294717576539688 
-0.003438029570379961 
-0.0107696963837869 
0.01588162317918141 
0.02564541099006696 
-0.004524894550376279 
-0.03316931985217044 
-0.001788892952337134 
0.001127482502516818 
0.0002894421643847985 
0.0002894421643847985 
0.0002894421643847984 
0.01168842481421193 
-0.001227299263410067 
-0.0007831665838796227 
0.0002894421643847984 
0.001322263705321316 
0.0002894421643847985 
0.002717321298011342 
0.0004386533933362837 
0.01636936964423477 
0.007001878274074412 
0.0002894421643847985 
0.000578884328769597 
-0.0169195982794192 
-0.002427064475735395 
0.04877298784839688 
0.002116372869968626 
0.01139674805405629 
0.001024316150166792 
0.01184800701135266 
0.02453691454326274 
0.008080641304847697 
0.002688899270662768 
0.001733864201793653 
-0.02374704643113593 
0.004415521068396534 
-0.001941926143118056 
-0.004184839958460715 
-0.01096147569457087 
0.000578884328769597 
-0.0006465416356504226 
-0.002907307407628931 
0.005033631518360113 
0.0166915919716948 
0.0002894421643847984 
-0.04067077144709425 
-0.02273782782205455 
0.0002894421643847984 
0.001504699324137941 
-6.442642162504274e-06 
0.002199470005137639 
0.002549292383443353 
-0.001939314079632888 
0.0002894421643847984 
0.00117120603910212 
-0.01076327926802984 
0.05581071448826395 
-0.008059883120275578 
-0.01909521626315728 
0.0002894421643847983 
-0.008880581884708682 
-0.007827336636541424 
-0.004416275924492058 
-0.001979254367667806 
0.0002894421643847984 
0.0002894421643847984 
-0.0004889266590849544 
0.002653648203723128 
0.01519872737523626 
-0.01272900847671965 
0.0270391818030214 
-0.02226173400196166 
0.007332596930324185 
-0.002797341915949103 
-0.0196451495982542 
0.005719730396878237 
0.0002894421643847984 
0.01528396443794328 
0.003811055450837669 
-0.01861877123408052 
-0.03989643734188717 
0.002841407566146499 
-0.008312557885988699 
0.0002894421643847984 
0.0002894421643847984 
-0.001220765878374953 
-0.0004911588038132663 
0.04455307399734296 
-0.02966543166783016 
0.0002894421643847984 
-0.009262491275717119 
-0.006080813238132685 
-0.008371242944281312 
0.01598120921544793 
-0.005083435831304122 
0.01971371639650586 
0.01030014231167231 
-0.008047550998795356 
0.003103691579796404 
0.001284582480878674 
0.005146445619785127 
-0.002313204663089685 
0.0002894421643847984 
-0.001278593803788595 
0.01130612359461008 
0.002169832803840209 
0.0002894421643847984 
-2.801615969003589e-06 
-0.01132989207787021 
0.006127919433257014 
-0.01646059221220858 
0.0002894421643847984 
0.004832822088074846 
-0.009573107555856785 
0.0002894421643847984 
-0.002173130945545546 
0.0004875617181194455 
0.02692147624158834 
0.0009856231874331306 
-0.006567994669146212 
0.00278345045224605 
0.008149474518650267 
-0.003109057421052819 
-0.006038492866942077 
-0.002832802288526696 
0.0005788843287695968 
0.001565502690832634 
0.001318519765657904 
0.0114195615165855 
0.005576161232301512 
-0.0393469463430335 
0.0002894421643847984 
-0.002693230402719479 
0.01264516417724057 
-0.04329391368066504 
-0.0008135627170202472 
0.007372892790706598 
0.006968833322812703 
-0.02232817915622486 
-0.01213235208649717 
-0.009204284752769578 
0.0002894421643847984 
0.002627931285914595 
0.0002894421643847984 
0.0007867997063050172 
-0.0320116256217312 
0.008921030811424729 
0.005740582573302204 
0.009009686719547799 
0.002333809165751155 
-0.01255740530769833 
0.007380684407341668 
0.0002894421643847984 
0.0002894421643847984 
0.0004518343838025598 
-0.0122337396201497 
0.000728856479231441 
-0.002801234283560294 
0.0002894421643847984 
0.01052366884096325 
-0.004986718607371395 
0.001049040731786004 
0.008918266870254262 
0.0002894421643847987 
-0.006037381067046583 
0.015483813571247 
0.02700023327684949 
-0.0008179446122356466 
-0.001576897096718111 
0.007617968412254048 
-0.01842370554705038 
0.0002894421643847984 
0.002857058794304276 
0.009029467701738245 
0.009232375373384978 
0.01940645037974128 
0.00363039856266806 
0.01412468075078708 
0.01013605738325486 
-0.03331474206589373 
0.002195712352135841 
-0.01718985302211542 
0.001618890387950685 
-0.001915709289214939 
0.01111566392921079 
0.04694204027612067 
0.02263394959435494 
-0.01273791138199065 
0.01362886120813326 
0.002402040468173502 
0.008403769612747648 
-0.003364166540065876 
0.006564492754013595 
0.004275287442306751 
-0.004402837947340954 
0.01709365588671085 
0.004294627547957257 
-0.02619623306918171 
0.00355940958926642 
0.002908855765567741 
-0.005484107468754848 
-0.06740267753600207 
-0.01224379994642861 
-0.03758267376185844 
0.002402040468173501 
0.01925898545387739 
0.007884974987644695 
-0.004972151078085765 
0.00112697021027587 
0.001811618263438782 
-0.01819724813479744 
0.0004065852828969367 
-0.008639871631198455 
0.002402040468173501 
0.0004602484402891934 
0.004443903569019826 
0.000910426615032709 
-0.005041011804980554 
0.01541334102396896 
-0.02879302097511015 
0.00484556355755027 
-0.01571951482649939 
-0.04988589338034192 
0.00702445565971596 
-0.02558768509163362 
0.004164989364378079 
0.01387140690376776 
0.0267065719792161 
-0.01139137172855533 
-0.005466275220932815 
0.004213818521631157 
0.006308234029406194 
-0.01421978620636092 
0.0002616876200576239 
0.001522659152349133 
-0.005606522666370305 
0.005923503850535196 
0.0203528726711953 
0.01140466577244302 
0.003182375747944265 
0.003094272469861561 
0.01868638977510221 
-0.01208356501234806 
-0.003785650431111562 
0.000829561341475087 
-0.02632941977348733 
-0.001227160897161586 
0.001094526376349097 
0.003364117828267965 
-0.006604978838548654 
0.0007869436050406212 
0.0169518940446919 
0.005984110203887963 
0.008270797960711026 
-0.01233167733099269 
0.01284777145151965 
0.002525060836710588 
-0.003668233154333896 
-0.01322496791210599 
0.002402040468173502 
0.002103865740065792 
-0.0112722676538152 
0.004502195430086784 
0.001460153180203998 
0.002402040468173501 
-0.01870210311322279 
-0.001847394621347219 
-0.03005245799725405 
0.01923739200523976 
0.00191338207214345 
0.01143557082268746 
0.003952178703971051 
0.01755515424094558 
-0.001987311671454201 
0.03961388838952988 
0.007421037949268605 
0.008604953370349114 
0.01047368348771656 
-0.01188192396197144 
0.02248409686789156 
0.002771832242716453 
-0.00352667649821822 
0.008760053161640347 
0.01491726632853875 
0.01493215123842893 
0.003078379841176101 
0.003533302086861954 
-0.001170153909532147 
-0.003019757843774271 
0.02668232639812414 
0.005969170542554947 
0.00526257381004899 
-0.04007348321816412 
0.002454608233387419 
0.01501080194686294 
-0.008347143186709854 
-0.01509265550806255 
-0.01251529356388218 
0.002402040468173501 
-0.006122578680913389 
-0.001805650200286415 
0.01315746779959419 
0.02334289967842636 
0.002667832687086769 
0.001215720097083781 
0.008279920146870057 
-0.02964330471859008 
0.002402040468173501 
0.01091268141159728 
-0.03561670956379481 
0.006496361699764873 
0.01400182225694016 
0.01444863626536472 
-0.003680083670482384 
0.002402040468173501 
0.0003121550743006355 
-0.0003243587537126967 
-0.003078222079506864 
0.001650017758608571 
0.01361760965734404 
-0.004348787969588378 
0.009746597296849572 
-0.009874619457638744 
0.004153143612801447 
0.01290986080612522 
0.006443214870372136 
0.005073573257510946 
0.002402040468173501 
-0.0700920783176238 
0.007944681500155752 
0.00228265410882022 
0.002900302765156241 
0.006400728346941939 
0.009489762756001307 
0.01922986911631769 
0.003452695190427462 
-0.00502022767142192 
0.00430823141935834 
-0.004031710916039014 
0.006785847169363236 
0.002402040468173501 
0.002378092958179896 
0.007466907700025039 
0.004314078203892971 
0.007078018171988376 
-0.01762740511661544 
0.0005889470424553787 
-0.004183955839858568 
0.004421080991708697 
0.03696889997413508 
0.01393519455910014 
0.0005889470424553787 
0.01596919698948803 
0.007078018171988376 
-0.01892029018144123 
0.0008814949635484676 
0.003298535537459404 
6.15266832356567e-05 
0.02126059931752184 
0.004314078203892971 
0.04392663759897786 
0.009866581170590045 
0.01413910994601788 
0.008130630215561613 
-0.0006460100083824852 
0.03122176772068493 
0.0009816979641674593 
0.00685517008589059 
0.01946660838606393 
-0.006368455168147845 
-0.001539207077568527 
-0.001611749595415743 
0.01673918106789065 
0.01058931175327302 
0.0005889470424553787 
0.0007076891846448034 
-0.02864175509978493 
0.006294335075901518 
-0.0003958601478144126 
0.005067174494292797 
-0.001801595850870368 
0.0124345137062635 
-0.006873959548712619 
-0.002105839355110207 
0.009631732598835638 
-0.01363410035085157 
-0.004167088261924209 
-0.0007996263183273683 
0.005073411658143574 
-0.00343342089362937 
0.003940662662752807 
-0.006117737667951971 
0.02701804722380395 
0.007145505060099009 
0.00882269223210847 
0.006517396522795391 
0.009098054416298228 
-0.0179899761521882 
-0.0117972382369332 
0.01833772965410609 
-0.0152538061153937 
0.01040555343813154 
0.003641129083248125 
0.01844436750504978 
0.0005189124571220345 
0.005402628042440761 
0.0002085070516574522 
-0.009582063219898865 
0.002740896184992857 
-0.0153266807742844 
-0.009124088277390256 
0.0005889470424553787 
0.02450584008086942 
0.001771250415207078 
0.00268205881585775 
0.005184602269367258 
0.00491321513130691 
0.003328482225905733 
0.01264633983141137 
0.0005889470424553787 
-0.009545662513897523 
-0.003355288033035714 
-0.03954329142994669 
-0.01496060486094903 
0.002003819767273999 
0.006701757423778737 
0.006524075076065731 
0.01899327421629362 
0.007024246768523588 
0.00964407692789546 
0.003140696737106218 
0.001864835337207036 
-0.002966636465758786 
0.01011975616760351 
0.007185285867004811 
0.02604519636740459 
0.00484712588360835 
-0.0001049839880123327 
-0.002031420589259708 
0.02746146515974858 
0.005376958830922766 
0.004607117179152774 
-0.01355559186841799 
0.001774031336216565 
0.004426451856829758 
-0.002390166084338265 
0.00587305674596378 
0.007090316575204782 
0.002522611695290942 
0.02054988231821833 
0.00293652837298189 
0.02506172343423458 
0.0001594661530438231 
0.004418304736957571 
0.0161198426293095 
0.02044943201730223 
-0.02037269648255448 
0.0007714397494703339 
-0.005368188011255103 
0.04172298662407795 
0.003115934968597892 
0.01782452794654237 
0.008302453443953275 
0.002853485820869415 
0.00293652837298189 
0.01193047457406009 
-0.007736172939687673 
0.01709019448514805 
0.0005194277009476375 
0.04530457965827384 
-0.01126253004991523 
0.004233504126817873 
0.007072067634583452 
-0.03250408395345306 
0.003523395733895418 
0.008589254244983184 
0.004234179179338932 
0.0007547079593695997 
-0.01656865105709436 
-0.008095624699051524 
0.002143801738352447 
0.0007197148822291855 
0.00805088096575619 
-0.002001423937552593 
0.08079746638838625 
-0.002498016950330047 
-0.0006550394533890531 
0.002033566815317852 
0.00816556310150314 
0.001414485936011676 
-0.008299074857984942 
-0.01489041803182088 
0.01792045008056065 
-0.02074455149721547 
-0.001449150754254165 
0.002143203929758919 
0.007429091742932745 
-8.172196256677979e-05 
-0.006067832772339964 
-9.413011058392552e-05 
0.001278523381442252 
-0.006541161394167961 
0.005619504901259417 
-0.009547586286494327 
-0.004163254818417435 
0.03904920124705924 
0.01505831848775393 
0.02707507790321914 
-0.004749404842751022 
-0.05490703714927564 
0.0189450352391556 
-0.007243979568241514 
0.01283390047436637 
0.001851792220172297 
-0.00298382187738497 
0.004844678826255622 
0.002042952543341842 
0.008007345475182006 
0.02953506576098369 
-0.007930080428341049 
-0.008527959074027191 
0.002464888832486219 
-0.003924186751627577 
-0.02460596693072789 
0.0209350583246266 
7.01444545811046e-06 
-0.002156846370028556 
0.008458426877290922 
0.002599237361446715 
0.007994987450587059 
-0.01682414948097296 
0.01944651516494081 
-0.01721478716473915 
-0.004068391853503212 
0.002930182979668012 
-0.005537905490615991 
0.005735746790819422 
-0.002642861646839917 
0.00576606453162129 
-0.001036746842704053 
-0.02204728635707985 
-0.005861994568486734 
-0.006252185161043429 
-0.002375583491079295 
-0.001951849202932975 
7.01444545811046e-06 
-0.003401927183225961 
-0.00106273009072787 
7.01444545811046e-06 
-0.03117044971766451 
0.01603782336124889 
0.01183645126146264 
7.014445458110446e-06 
0.01831746364852067 
0.01366830717203473 
0.001259236072790611 
0.02872636992530073 
5.958221067202681e-05 
7.01444545811046e-06 
-0.009708345486924164 
-0.03407316096509273 
-0.01284714275914038 
7.01444545811046e-06 
0.009034759752288788 
0.008943426417843688 
7.014445458110544e-06 
0.0005519583089532849 
1.402889091622092e-05 
0.0361431496971425 
-0.04195046095869823 
-0.01192557162400692 
0.0003577020537980841 
0.01099829845977798 
0.001096628300225362 
-0.001805538810921762 
0.01411624026960325 
0.003691978504262866 
0.004883899851659731 
0.01702123442391057 
1.402889091622092e-05 
-0.05350533430125071 
0.02355162178444272 
-0.002421165169048965 
-0.007043506367770588 
0.001642639211741866 
-0.02172894743417457 
-0.007189450081231424 
0.00999999176683882 
0.009072745733321319 
0.01255096116988869 
-0.004895351223202843 
0.03260926021432151 
0.0007247155761360168 
-0.005739570300941747 
-0.03424886151366499 
-0.001768610248757432 
-0.01494651878265733 
-0.004741576788956053 
7.01444545811046e-06 
7.014445458110446e-06 
-0.01528541594955189 
0.01080036638415571 
0.003427107699483841 
0.006329656904394128 
-0.007671082577083436 
0.005617680534513963 
7.014445458110446e-06 
-0.01291786169572222 
-0.001665793888618024 
-0.003521351141451915 
0.01038564482862995 
-0.01443682470840483 
-0.02673459771673504 
-0.001145382051168667 
0.0056753421881868 
-0.0006003330021235044 
-0.028109048245374 
0.007733621111105722 
-0.006587323333035257 
0.000822238270096601 
0.01924052291023794 
-0.005086535420188635 
0.009113563237050995 
-0.02319715287149506 
-0.0001013556355486826 
0.0007988359646944568 
-0.001854464748373332 
-0.003046623541496729 
-0.01075464568538337 
0.001832404864178222 
0.001214050413265656 
-0.007563094284668325 
0.004986309129556219 
-0.01141252963621287 
-0.01221431187588905 
-0.007518683669577468 
0.00261455777670363 
0.02506352414212437 
-0.01560305048020047 
0.005784443157152142 
0.009176919242090329 
0.02148529678184902 
-0.008230890914397979 
0.005190191007102243 
0.003092957106946223 
-0.0009775523862110089 
-0.003180852776924851 
0.004931469846705033 
0.02252341550653286 
0.01766095803254309 
-0.001638617891019659 
0.003153816061819504 
0.01899258294094474 
0.0002226242629899398 
7.01444545811046e-06 
-0.01631107696046993 
0.04428273848033632 
-0.0006548738573433349 
-0.0005103803483121311 
-0.02371021196377291 
-0.002959518965492392 
-0.01893342495237106 
-0.005898165865021086 
0.02108640926310205 
0.01059105686156535 
-0.0031309536910697 
0.001556309641979025 
0.001364796109610476 
0.001802140017225192 
0.007730487637786507 
-0.006809601962046879 
0.003546717458092305 
0.05077696823214722 
-0.01387791025605353 
-0.005476064863512899 
0.008414753680502072 
-0.009559774424064801 
-0.02704526429814653 
-0.01707717617842442 
0.01605386598036559 
-0.003050066700675001 
-0.02574457714495092 
-0.01673702440323811 
0.008515965494514688 
-0.007635902521920562 
7.01444545811046e-06 
-0.01871105594325521 
-0.007406746050669348 
-0.004221750624871687 
0.002130922504849968 
0.0267836180771253 
0.03658303761628148 
7.01444545811046e-06 
-0.0006657300034658064 
-0.01708296523438973 
-0.02264828079560578 
-0.02481064975452527 
0.0007667603385374203 
-0.006136360217574332 
-0.01332432489269515 
0.01191291312328346 
0.007938972636791657 
0.002999536573533076 
-0.002652304257170605 
0.01621299113680458 
-0.00415136464141758 
-0.001140430769009029 
0.006898119147415702 
0.0158531631245485 
0.01405293717432705 
-0.002347696132473974 
0.001797628541482152 
-0.004863652473259304 
0.002741028372502442 
0.003168185235367554 
0.005312383848891785 
-0.001474521996554133 
0.02290659111904134 
0.002780466428153924 
-0.02275579884454475 
-0.02139273508624991 
0.01320320314023626 
-0.003315749607314822 
0.0002457818444405987 
0.004122793562782242 
0.0338035554019811 
0.00541499562288876 
0.01428358033452529 
-0.008172081001105188 
-0.01635408455551305 
0.005244652275098997 
0.01197328798776964 
-0.01019624179494747 
0.01337310173160377 
0.003577435847387613 
0.02701591635753145 
0.001552038127754285 
0.005988153771466444 
-0.01192644550509499 
0.001491689294992604 
0.01085502547550139 
0.001387831424781645 
0.003065417362144409 
0.001387831424781645 
-0.007934324792253818 
0.03279261898411857 
0.009225828593091099 
0.007293308095960146 
0.002093465328780388 
0.03210645706315967 
-0.00542572545071032 
0.001387831424781645 
-0.007245469133072027 
-0.001560514937978921 
0.001387831424781645 
0.00593622799286405 
0.009490934093505406 
-0.01081397057235163 
0.009462851068556086 
0.001387831424781645 
0.01607897780772425 
-0.01231380900250899 
-0.02837233873822884 
-0.01388230614346623 
-0.01541285019818114 
0.06786429247421757 
-0.003126682880091125 
-0.009256066485347237 
0.03161805260049487 
0.001387831424781645 
0.001387831424781645 
0.001387831424781645 
0.001387831424781645 
-0.02012913540757546 
0.001387831424781645 
0.001387831424781645 
-0.007476006582771935 
0.00258116215206735 
-0.005837508635101301 
-0.0004128980344633487 
0.002387987747051738 
0.001956926219452603 
0.001387831424781645 
-0.04432784683953639 
0.013152652228655 
0.001387831424781645 
-0.005550978116625223 
0.007080200080223805 
-0.002389834407689351 
-0.01596142094095283 
0.02710103632427297 
-0.006852441068054969 
-0.02833561235175808 
-0.01035753929816429 
-0.003521369896715768 
0.04748855478306247 
0.008911365048414187 
0.007479290672518913 
-0.01625373482061261 
0.00703601853537314 
0.004006504195401587 
-0.009583305968549789 
0.02054619922484098 
-0.01470179154803185 
-0.005640019140796588 
0.0007050041542931357 
0.02228673612019504 
-0.004671643548675707 
0.006958366224725298 
0.0122577564984771 
-0.005584459143348075 
0.01308570634577354 
0.00617100569715343 
0.001387831424781645 
0.006551743859300807 
0.01009409721974842 
-0.0009364345985404298 
0.005144865046702503 
0.0006536551725821303 
-0.001903323976677074 
-0.003424134046833427 
-0.007587745679821064 
-0.02837889093462581 
0.008260341485664227 
-0.004093119848332518 
0.001852314521553812 
0.01009671410340897 
0.02999709047756977 
0.001852314521553812 
-0.00363941956034078 
0.01314519434655312 
0.007922677936554179 
-0.0007041348410874031 
0.004728225475359005 
0.001852314521553812 
-0.003844681916922132 
-0.002895207883771476 
0.001852314521553812 
0.02506246995781356 
0.01156134318344147 
-0.01052996828936136 
-0.02731137611649833 
0.003704629043107625 
0.02276773711064109 
0.05361447758396043 
0.01229212877580319 
-0.00258996041338491 
0.009549862715966587 
-0.004288471543922298 
0.003355391814563917 
0.004580411790837563 
0.009351532687955902 
-0.0168694454125624 
-0.004733154746551753 
-0.01122390904530466 
-0.009583556833219431 
0.01109267648520071 
0.01115154402357129 
0.02446369051575591 
0.0005304044257602252 
6.733154334542117e-05 
-0.01548870713641503 
-0.0003310234366488328 
0.001342542866811008 
0.05739716586314572 
-4.634691722405583e-05 
0.004527237731708049 
0.002738607500823087 
-0.02053292159412828 
0.000586710492027218 
-0.01093814330998013 
0.01428799695225743 
0.007226147218711997 
-0.01383125738042662 
0.002647160362659566 
0.006541113585109538 
0.0004304411645248067 
0.004420935286923655 
0.002824968590363199 
-0.02162500591882839 
0.008873511257133893 
0.007924202489642391 
0.001233497688674297 
-0.02332803578577217 
0.01025228431512738 
-0.01205962191855346 
0.02521758235885352 
-0.01544904637881378 
-0.001876782743631575 
-0.002039360532505174 
-0.007699819839160076 
-0.004561152866163905 
-0.007519811641264513 
0.003426550638299472 
-0.005303703079293776 
0.01847524926308473 
0.07327396924798314 
0.06600656148449155 
0.03987375421623384 
0.001520928411933684 
0.007307325547088918 
0.02270271928721916 
0.01002793638607347 
-1.084202172485504e-19 
0.003248030731648212 
0.008242021665959992 
-0.008851364429422973 
-0.01083704896690963 
0.01179349856911693 
0.01817825071638067 
0 
0.01585582291711826 
0.01401706846208707 
0.04379431263313914 
0 
-0.004776521877291994 
-0.00028209662827972 
-0.01920339588270418 
0.01833757174258289 
0.00409357354905297 
-0.0248845645423591 
0.003060805701670731 
0.001608305421080773 
-0.0009580626888423421 
0.001631710545536147 
-0.002928663652042464 
0.002362450065031282 
0.008946281387995789 
0.02642111512460362 
-0.01964663099905716 
0.009129253133044376 
-0.002238114980652166 
0.01839246505416057 
0.001111447167205694 
0.0005559263399320073 
-0.004542142040499506 
0.001787012696111087 
0.002649300147180194 
-0.01284375176699122 
-0.001520134474413629 
-0.01630399049877586 
-0.002364998893162796 
-0.003248709300038451 
-0.001997791524509587 
0.002397907267498402 
-0.011056048503872 
-0.0006685379759564702 
0.001826773418359921 
0.006932673205207016 
-0.02158721388101481 
0.02146817245789744 
0.004051168744235384 
-0.0006737360849862952 
-0.02318479183057592 
-0.001258460942171565 
0.001513780021327629 
-0.02059517422374795 
0 
0 
0.01418148373845343 
0.01510096516026259 
-0.01756263617715178 
-0.00614541869094891 
-0.002225656726793391 
-0.006958148921643623 
-0.003832958788401293 
-0.004365790778344428 
0.003546077397796216 
0.01316285781492437 
0.004654947501046152 
-0.01213699756392251 
-0.006409245879541656 
-0.024144632272474 
0.0003007345213632009 
0 
0.01132399822954333 
-0.006134814202536891 
-0.0006601119613810019 
-0.006565236229147019 
-0.004534815537478407 
-0.008255694163606352 
-0.002586297136191257 
0.0007506178457386671 
-0.02551616119941614 
-0.005897229093233394 
-0.01511034703433188 
-0.002735626510479952 
-0.002372824554415923 
0.01520911767042314 
0.01275115034801496 
-0.03185415906541769 
-0.002521217594001939 
-0.001068390556301659 
0.0003399939809699468 
0.0159191312149823 
0.009345715278853372 
0.001501702635275062 
-0.0006116023260909667 
-0.001206693239331961 
-0.003033165747638523 
0.009811154130386822 
0.002833644234245756 
0.00158773135830303 
0 
0.005983246362037366 
-7.731747899478489e-05 
-0.01299503931118529 
0.004787389662113719 
-0.005463543921570909 
5.469895497565698e-05 
0.00968098090996806 
0.007037912023900613 
-0.00161383934047057 
0.02608928255069001 
0.0005510368086598498 
0.0008860484547775284 
0.002136226256053927 
-0.01126497343664859 
-0.005327621513333949 
-0.02539714011656822 
0.02989460140305531 
-0.01349989382366013 
0.03173205479585119 
0.007959604339915426 
-0.006937577014469864 
0.007796856449512628 
-0.03227754427560284 
-0.003892171371432471 
-0.0139117073358269 
0.00841826848566773 
0.02203112289471607 
0.01239722912207972 
0.03737881151132229 
0.003866688185756176 
-0.02474627191400959 
-0.01135805206395227 
0.001904005723661115 
0.0002801299251800682 
0.0225421361272868 
0.01012035664560899 
0.007862077394197512 
-0.003068725295156634 
0.001871271903053674 
-0.007340569230825773 
-0.002786684318500925 
-0.003503176829432869 
0.0008403897755402039 
0.0002801299251800682 
0.0002801299251800682 
0.01770725829867923 
-0.005195400658021035 
-0.02380227497389384 
-0.001777760691221506 
0.0002801299251800682 
-0.009572806452061346 
0.001328900056653874 
-1.424265772763557e-05 
0.0002801299251800682 
0.0005602598503601365 
-0.01344940095658484 
0.06364510597357209 
0.01513775583930553 
-0.003949958502858598 
-0.02717551590336903 
-0.004579238608755931 
0.0002801299251800682 
-0.0006143072195606266 
0.01915859907940093 
0.0002801299251800682 
0.0005602598503601365 
-0.02316852489448731 
-0.01783018448399534 
-0.001114973796119385 
0.0004418658342742895 
0.01638968661866528 
0.0002801299251800682 
0.001596756953493987 
0.0002801299251800682 
0.01599130096953807 
0.004710576046666599 
0.002027519332657426 
-0.004957526419774469 
-0.004899395994527461 
0.001480151447529506 
0.008747920959963561 
-0.04352924747629355 
-0.002294693690592099 
-0.008744637771084399 
0.0002801299251800682 
0.03593068900557929 
-0.00518289528041833 
0.001231449258857638 
0.004320192543004825 
0.0131658719761852 
0.007947249421216229 
-0.03926442172823381 
-0.0004715225183280633 
0.0240809257413172 
0.01097314236395615 
0.005077487579723456 
0.004320192543004825 
-0.00917621411693287 
0.004320192543004825 
0.009024273071066072 
0.004320192543004825 
-0.02400064633428638 
-0.007329728934105066 
0.01137589558108509 
0.01337618301300085 
0.008815539612459454 
0.004320192543004825 
0.0004386246969066047 
-0.0280628281155408 
0.001661301222336022 
0.005738915154111815 
0.01035073362005045 
0.01059658997377628 
0.007702789866474494 
0.0422627104576849 
0.004320192543004825 
0.002366977182550376 
0.007162167941962489 
0.02007196740161887 
0.02944123373704699 
0.004320192543004825 
0.004320192543004825 
0.01405082557534177 
0.02242077116851427 
0.01088576232601141 
-0.006088832527777786 
-0.004212353383538655 
0.004320192543004825 
-0.006346025875788019 
0.008640385086009649 
0.003335625711335703 
0.003659333250192522 
0.00842017367416888 
-0.03550193746779028 
-0.002333438461939404 
0.01203298230225981 
-0.01824545810281589 
-0.02371914049771187 
0.009480377701630675 
0.004294674450039246 
0.01360146192550588 
-0.006241979244967556 
0.002659814994762004 
0.003872554156935955 
0.0007311379150257124 
-0.01536955510517482 
0.02153489839038835 
0.01209235146644805 
0.004320192543004825 
0.002046031945792019 
0.01108795514321612 
0.003135654840243432 
-0.007532353989092595 
-0.03293559334103745 
0.001865589702481498 
-0.03240889173440601 
-0.005631856805903135 
0.01170278999445883 
-0.0158356608332999 
-0.01292442104242371 
0.006725484507706341 
0.002549358897952606 
0.004320192543004825 
0.0108919503497755 
-0.008138952424766265 
0.01066126527129059 
0.004320192543004825 
-0.005311156059524939 
-0.002446297832834631 
-0.008496744256758669 
-0.001679285851715903 
0.02074253930265647 
-0.01237869145931944 
0.004447128899390407 
-0.003327160305348974 
-0.003117174144725298 
-0.0164661719065652 
-0.01783011947041318 
0.001362609678544831 
0.003918240047588666 
-0.01081974063382396 
0.009535565875989589 
0.00490588565479275 
-0.03047744709450785 
0.004320192543004825 
0.004320192543004825 
0.02047831783704589 
0.007425421203715362 
-0.03487824033061776 
0.004320192543004825 
-0.002448827283907286 
-0.01234089863742522 
0.001480790380767884 
-0.001252403099565418 
-0.0214706759441529 
-0.02827565622909971 
0.004320192543004825 
-0.03816665876280532 
0.004586787665012739 
0.004320192543004825 
0.004320192543004825 
0.006746570263454391 
-0.008388797717622565 
0.006322596613998037 
0.003340685864724064 
0.004320192543004825 
0.0004370995606513452 
0.006405377066138321 
0.02561770265481354 
0.00581281452414339 
0.004320192543004825 
0.008162997727193274 
0.004234054390502469 
0.01438015754923771 
0.01412277327395319 
0.01441628783923264 
-0.03206889261025925 
-0.003070555167989839 
0.05112800700249964 
0.02528056089489391 
-0.003769017710416675 
-0.0008266319351943312 
-0.002665168716193586 
0.002604229394835644 
0.01247787125304317 
-0.003418541375910761 
0.0007451646576712074 
-0.009475250119790054 
-0.001271776558734614 
0.003188367602586804 
0.00556851584201466 
0.002198163477988871 
-0.02813911224160556 
0.0003017039724039425 
-0.004981785207106308 
0.003188995722892204 
-0.00208705811764313 
0.002956744993477826 
0.005039388099416778 
0.003853115719395517 
0.0003463481476135457 
5.421010862427522e-20 
0.002848505282143855 
0.005074788873032645 
0.005986195789595496 
0.004914020118778928 
0 
-0.03479385090911868 
-0.001365109799807898 
0.006583193964885261 
-0.007853916576124212 
-0.001623391176055153 
-0.02216426866301057 
0.02653727217379662 
0.002995928382817166 
0.001089613854767252 
-0.02016486640603699 
-0.006529775511464863 
-0.02061971134611545 
0 
0.04062813217433128 
0.0089420832637063 
0.001740591481094213 
0.0007796314301553417 
0.001458037978391449 
0 
0.01126119065001499 
0 
0.01437670583740446 
-0.004977681776581124 
0.001912247713345886 
-0.00196122239788853 
0.007535371683575623 
0.002979955258749825 
0 
0.01366874211769396 
-0.003004471009321325 
0.03616530562967392 
-0.01310469194116929 
-0.008228616658501485 
-0.006755973021891048 
0.01618554927368166 
0.01537912339678449 
0.004058546815280639 
0.01449365749008761 
-0.003904601466002011 
0.01419355481823912 
0.007026545535693077 
-0.01196816464089149 
0.01933963844225643 
-0.03208106725974361 
-0.113884416883872 
0.005712315008965855 
-0.001691948287673848 
-0.0241770588509884 
-0.08563373535537414 
0.03113977785175463 
-0.003786180833539924 
0.03347046506893062 
-0.004694957825337711 
-0.00847074119521813 
-0.0007070838151383136 
0.002586500759658614 
-0.00299628367416164 
-0.001168914029081673 
0.009965203739790509 
0.0003493887996381329 
-0.002356241020942868 
-0.004354167374573613 
-0.005421320891471235 
-0.06702563537399242 
0.07106648310883226 
0.00818320305298338 
-0.005165184782995659 
-0.002002389287467739 
0.0007633923895170958 
-0.01410449278356767 
0.009549083965043208 
0.0111381986277834 
-0.03166349654176254 
-0.005649027628540268 
-0.0005437894494737287 
-0.01894215727013018 
-0.007963034172355979 
0.009917840893609208 
-0.001004208417537628 
-0.0004894487030240413 
-0.01933851947224682 
-0.01846096043316313 
0.0003493887996381329 
-0.009271136520474343 
0.002398085726831461 
0.0003493887996381329 
0.002628764773240069 
-0.006176016290328388 
-0.0006277218808216244 
0.001560804590611821 
-0.006634253837457227 
-0.004004778574935478 
0.0003493887996381325 
-0.029494005562069 
-0.002435107360860859 
-0.009510039767283337 
0.00532279319517577 
0.04577802575962703 
-0.007319671985591184 
-0.005710710836135483 
-0.004366470043747712 
0.01370013978248334 
0.004989060764274161 
-0.02568678261477128 
5.493644363465766e-06 
-0.006218907487247641 
-0.03651316356535822 
-0.001279620314131139 
0.02057553715920826 
0.004521555791288961 
0.0056641232565823 
-0.01735574308603214 
0.00117411085284378 
0.01077396406079191 
-0.005011496931634225 
-0.0007032405331132601 
0.0003493887996381329 
0.0005525330170619628 
-0.003676928564650224 
0.005239271313024481 
0.002711683027341411 
0.01298330714162663 
0.006119100010663021 
0.0003493887996381329 
0.01223845863919838 
-0.00487802147411965 
0.0001919827868587354 
-0.01439957597962228 
-0.04750648616973761 
-0.04070175469976178 
0.0274798323315277 
0.01446053558435653 
-0.01533537638308752 
0.02283869710785097 
0.007760085336806243 
-0.0129635484017736 
0.0455853121765149 
0.01746035871973238 
-0.01034493627496181 
0.02078063627054942 
0.02068134113489672 
0.005266716073817636 
0.008391918576611734 
0.02557333415040797 
-0.0009453915284279434 
0.002601535071055124 
0.009305083972015005 
0.007091246484933984 
0.009028557183609237 
-0.008914534266053846 
0.006010476699739197 
0.02512316176423882 
0.005978109133290676 
0.01288339581961817 
-0.00184060519802154 
0.001423273546668738 
0.05356166421646893 
-0.02492208059512434 
-0.04662773117726236 
-0.01668763728889302 
0.008073150268928405 
0.006010476699739198 
0.006010476699739199 
0.01444543454875847 
0.008912706902460266 
-0.03112946324852098 
0.006437844009486199 
-0.001182410528264387 
0.008744855271606275 
0.006010476699739197 
0.01287708601827425 
0.007822249935321575 
-0.0007970538278896861 
0.01482822673544972 
-0.01122887852121117 
0.01084862869877066 
0.03427237146970088 
0.008909900076415348 
0.008308341183121615 
0.002513597591201903 
-0.001924836753872847 
-0.01995319510267975 
0.01227521082417442 
-0.02795478951391023 
0.007207458496353297 
0.01570635530566639 
-0.03924263327989441 
-0.0007984122532295773 
-0.004792590902047231 
-0.005262524694982071 
0.02318346851875592 
-0.001001365874238147 
0.005066446248122874 
-0.003824500569141185 
-0.01529288203813752 
0.006950839092559163 
-0.002188982734587047 
0.00657387993511986 
0.009455250335042076 
0.004340494118094495 
0.004898757330995906 
8.917364653199527e-05 
-0.01464800471248023 
-0.002003502002818423 
-0.009927989469404808 
0.01285118609483682 
-0.002816230215038847 
0.0005905416650712335 
0 
-0.01095176860846612 
-0.008155541749399187 
0.03254748612760999 
0.01921003649183484 
0.005547410838333978 
0 
0.007348017444558263 
0.01187575001436652 
0.03070089057538306 
0.001220182553618732 
0.002185498411267528 
0.00677284624409254 
-0.00091507798097899 
-0.005002837409803807 
-0.001197947805028621 
-0.001618168217726244 
-0.003708155064335542 
0.0186028955471475 
0.02629370075580238 
0.0001918387651974305 
0.0003097759789253891 
0.007230803791935687 
0.01041666059646379 
-0.003961486406379498 
0.016409955786676 
0.02509415694006484 
-0.007897574257691475 
0.01956391844368426 
-0.005895852428106579 
-0.01138133034503059 
0.006536188120791363 
-0.001416567969184102 
-0.02587651798034879 
0.003647184122614771 
0.0004190201690660097 
0.0122278138614446 
0.01336729349479385 
0.003656350294190654 
0 
0.03869495790237829 
-0.01463268774820041 
0.008115308504036552 
0.003756498687237255 
0.002536316133618524 
0.005282442027442289 
0.005769285973994737 
0.02523911108487848 
-0.01097965746199966 
-0.001784840593727373 
0.004650026703751132 
0 
-0.009534849950562413 
-0.0007785986088744059 
-0.01892131128235988 
-0.0001920393371453138 
0.02563308078294436 
-0.004440025903205518 
0 
-0.005485930097089892 
0.009467241739848241 
-0.008728538972571909 
0 
0 
-0.002170049197659753 
-0.02539173087872023 
0.01246813096843522 
-0.003956575397920838 
-0.000981776534360724 
0.0002247594505767383 
-0.02123101357191851 
0.02014160160649268 
0.00370789064598149 
0.004808234250158492 
-0.01124851216593207 
0.01679307592181459 
-0.008076221445690276 
-0.0491795686784568 
0.003919347124192623 
-0.00243073927156988 
0 
-2.147894954283633e-06 
-0.01105843477505649 
-0.002371091897586099 
0.001226044908554429 
0.004988248912081142 
-0.00499970510813916 
0.01108278262974327 
0.0006783113730902311 
-0.001243371205677544 
0 
-0.00314698266872546 
-0.01327867336761747 
0.005591363875149611 
-0.01478535423795665 
-0.001397250857057271 
-2.710505431213761e-20 
-0.005130110948058703 
0.008569585263750757 
-0.008481351097717013 
0 
-0.02041516809405716 
-0.008069797129922479 
0.01002372647258927 
0.01792081744660301 
0 
0.006434115182019036 
-0.002399927610604839 
0.007828672716835098 
-0.003119816850613411 
-0.007212634687926541 
0.002019547217992001 
0.01411414462860708 
0.01227012067188825 
0.009235288254935012 
0.02542060744476421 
-0.003590503018211916 
0.01948463952380869 
0.007435841189977416 
-0.009604236719438743 
-0.03296434202942023 
-0.03053035897902422 
0.0211194473493777 
0.004039094435984002 
0.01413683052594401 
0.01615637774393601 
-0.0006294613803082588 
0.0002864297442832143 
-0.001702205177408688 
-0.01293173249366904 
0.02590142498622728 
-0.002619458229670755 
0.02972375713854309 
0.002019547217992001 
0.02536112295629819 
0.002019547217992001 
0.0168689997351852 
0.005102494175628323 
-0.003591391143310606 
0.005256436257431619 
0.002019547217992001 
0.01042208324759263 
-0.007498719428264621 
0.005242079343321354 
-0.007994712225031741 
-0.05319012847285381 
0.002132917896120058 
0.007502138041584085 
0.0003069852950563696 
0.002827557067391816 
0.002754532610585022 
0.003446106263768985 
0.006116069564820404 
-0.03159046298942604 
0.002019547217992001 
-0.004786759841340362 
0.01565507210478433 
0.0243872904460611 
-0.01018544952499261 
0.004527548886558689 
0.004039094435984002 
0.007104793841570672 
0.01761921498174578 
0.005175208295352887 
0.0006945967958130123 
0.03128736213781536 
0.01341202161173499 
-0.02597042366813012 
-0.004956251517909146 
-0.02531364106857888 
0.001473031933643221 
-0.0004969997788267122 
0.01211481381242369 
0.002019547217992001 
0.01845871501972877 
0.0007724678931736163 
0.007357312208316483 
0.002119202976022474 
0.02678581800980685 
0.001367040298633751 
-0.01264204906450933 
-0.01264204906450932 
0.004039094435984002 
0.002158009648235726 
0.002771302552872275 
0.004404694642272066 
0.002019547217992001 
0.006058641653976005 
-0.01656195121571179 
0.0006258713904533658 
0.0005434212817847281 
0.01149858904170902 
-0.00433801491615575 
0.01004135355936706 
0.02093810047104728 
0.005647966031293352 
0.003309298306449158 
0.002518217415203949 
0.009689871869050669 
0.01102825498230607 
-0.001753106358757118 
0.001456706201994045 
0.003963259400104719 
-0.009253448044636018 
0.002019547217992001 
-0.01487191421902914 
-0.001634857028068904 
0.01055899492105015 
0.00443866023767181 
0.004818059394615546 
-0.03229159552190925 
-0.005085791847762332 
-0.003887663137213817 
0.001282367170078818 
-0.0009978611793865916 
0.002019547217992001 
-0.006676481577403346 
-0.04277914965212339 
0.007008174340215367 
-0.02254216804654827 
0.004595552217193365 
0.0005347147261500631 
0.002407509681260303 
-0.001457673261100762 
-0.001326272195972677 
-0.00381309143677007 
-0.0006739054139579852 
-0.03994610138658503 
-0.06337023666756282 
0.01619670913014911 
-0.007081559516929697 
-0.01908048694213342 
0.002019547217992001 
0.0003025659955125368 
-0.001890363991759946 
0.002019547217992001 
0.003939322381276873 
0.004329302531499584 
-0.01671845571331962 
0.002019547217992001 
-0.008127317265503625 
-0.0003301193592396851 
0.0006172205347238738 
0.009274211390771074 
0.002019547217992001 
0.007361884437703079 
-0.0117824576096141 
0.006306568546718126 
0.0008030685792081225 
0.001611786510750973 
0.01075340746243432 
0.003858405590237884 
0.01172978095052949 
0.0288694680752293 
0.0006629978789579601 
-0.002274524976664125 
-0.03640228479718723 
-0.002066866447211257 
0.004068222954007489 
0.001514314614798285 
0.02095321298369204 
0.004566605069668363 
0.005364671191781449 
0.0064191130238996 
0.004068222954007489 
0.02595328832221392 
0.0008790403956877542 
0.00425005871654081 
0.01296921393399636 
0.00266504318865701 
0.004068222954007489 
-0.01623370533806945 
0.00449749260032237 
0.004068222954007489 
0.007831307518912372 
-0.001569286231254907 
0.01610488390469575 
0.006517979158431567 
0.01147590671408074 
-0.004242541199823606 
0.002173114766953573 
0.01175396785723268 
0.005847349751805289 
-0.01526285553168423 
0.02006028919559948 
0.03059738753738559 
0.01155583304864329 
-0.004051781480591827 
0.008136445908014978 
-0.004261166606564013 
0.003171547487876471 
0.004068222954007489 
-0.007153802147527629 
0.01968235836196305 
-0.0008411228537383169 
-0.04113993845652954 
0.007784205203670262 
0.009830399023688692 
0.00318736274243327 
-0.001780384857838187 
-0.0002093429387572387 
0.01391133499837848 
0.00248929507640561 
0.002901409312187696 
-0.01383950838974873 
0.0633517217152563 
0.003168297531476065 
0.001922906425064743 
0.03341025307418279 
0.008136445908014978 
0.007193152936655504 
0.004068222954007489 
0.01310242869280745 
0.001277527837248017 
0.01064866660287015 
0.005402753959135607 
0.004068222954007489 
0.004068222954007489 
-0.0007847198564159376 
0.004068222954007489 
0.004068222954007489 
0.004068222954007489 
-0.00355314855346629 
0.004068222954007489 
-0.006800574348847399 
0.004068222954007489 
0.004068222954007489 
0.006567477846754207 
0.002337242924973488 
-0.01132417433564031 
-0.007248645941063322 
0.006280259252763417 
-0.02039986473393021 
-0.008415230567100227 
-0.04005382116888472 
0.003695992383172453 
0.001901522193510142 
0.006722335019618129 
0.01894678510561229 
0.004068222954007489 
-1.770535009102169e-05 
0.009405603347400879 
0.004084432323400722 
0.004239519246050651 
-0.01203563359630488 
0.003896305638120062 
0.004068222954007489 
0.004068222954007489 
0.01161532677788208 
0.001559497291088087 
0.005583254995451867 
0.004068222954007489 
0.004068222954007489 
0.02508559785023667 
0.01639768623529415 
0.01211567465432382 
-0.05062015350720643 
-0.001404268011898185 
-0.004879719062728715 
0.006632557727650234 
-0.003847560806520627 
-0.002821347536153676 
0.006736655049449231 
-0.02684558288989312 
0.003480866356022979 
-0.01136120198137177 
0.004068222954007489 
0.0105995336993384 
0.002276110510968836 
0.004068222954007489 
0.0008731281883094001 
-0.02668284982293826 
0.004068222954007489 
0.004068222954007489 
-0.007823582657190581 
0.004053055438032025 
0.004068222954007489 
-0.003875242247610534 
0.0005402754068979995 
0.01499442709380611 
-0.0003116270166258084 
0.01078975941096335 
-0.003592333078051826 
-0.001501489598223071 
0.001204187401305132 
-0.007890078959636707 
-0.01861627309910379 
0.003039345383863622 
0.007435086661369002 
0.005770557191015297 
-0.000758176156488272 
0.003852708232122836 
0.04428707091421754 
0.005618276231439867 
0.004068222954007489 
0.003541336844173001 
0.006727458847314009 
0.008136445908014978 
0.002431353955945197 
0.01665724762026925 
0.005723418329761393 
0.01069279950405192 
-0.06577401626733911 
0.007124885677377946 
0.007151879076345857 
0.004068222954007489 
0.004068222954007489 
0.03383239573554196 
0.002659030487077283 
0.006150607795290583 
-0.009812354685232111 
0.006922478100104991 
0.005356076849134429 
0.004068222954007489 
0.004068222954007489 
0.004068222954007489 
0.003794068638038185 
0.001986011140738301 
0.004068222954007489 
0.008464768569905506 
-0.008160859550036391 
0.01363522696467166 
0.007611759668925151 
-0.007477440530306901 
0.004068222954007489 
0.001206401165699899 
0.0005346567708224746 
0.002889639214371228 
0.008908040312422129 
0.010323252760585 
0.003295850911851558 
0.000173919365100718 
0.008711053819448165 
0.003061424873409554 
-0.006308987875911167 
0.001315674093926049 
0.01082452162578877 
0.002901675496718549 
0.01279984631107749 
0.002677134975704147 
0.01043426589449217 
0.00708205234780443 
-0.005206843119984369 
0.005798846753352306 
-0.002846081306683727 
0.002899423376676153 
0.00150833539837281 
0.00581687665981848 
0.02836968295556613 
0.004217395373408303 
0.005726174731899846 
0.005798846753352306 
0.005798846753352306 
0.01893065988398429 
0.005798846753352306 
0.005798846753352306 
0.005798846753352306 
0.005798846753352306 
0.002899423376676153 
0.002899423376676153 
-0.03067959804383799 
0.003277291502176717 
0.01091028947103165 
0.002972730791998885 
0.002899423376676153 
0.002899423376676153 
-0.009655088783809086 
-0.0137849998245803 
-0.001894577501320452 
0.002514392925255808 
0.002899423376676153 
0.002899423376676153 
0.005362127866964912 
0.01212446532934591 
-0.002133502517442128 
0.002899423376676153 
0.002448403163106623 
0.005835155590978419 
0.005478936907284454 
0.01048704459876101 
0.009913315348167785 
0.003055241988801939 
-0.001578347802514515 
0.002899423376676153 
0.002899423376676153 
0.002899423376676153 
0.006471047275991617 
0.0132574705980482 
0.001289205117222669 
-0.002498298437000237 
-0.003015285273786099 
0.002899423376676153 
-0.02173571355054889 
-0.002912215582731821 
0.01281526049334388 
0.01583210327333529 
0.002525383382345127 
0.009878367601653315 
-0.006851665506124816 
0.0003550312177948075 
0.002899423376676153 
0.01523701424690595 
0.001485310281912611 
0.01053051211738233 
-0.0006244074874491119 
0.006182473087332453 
0.00835619455663349 
0.006543276417866288 
-0.01639765591633622 
-0.002355508446419977 
0.03481588738083053 
0.005206315666693316 
-0.005948345384414457 
0.006946275660451149 
0.002899423376676153 
0.005386059427013432 
0.00632200226637314 
-0.001160741529768854 
0.01234492367299081 
0.004558085850375307 
0.002899423376676153 
-0.01760413733561832 
0.002899423376676153 
0.002899423376676153 
-0.01821168544998451 
0.003714647201314645 
0.03554872995998777 
-0.02002115193889871 
0.0164929250098954 
0.001932682269145891 
-0.0006544704059733584 
0 
0.00196342967679545 
0.01716771149732201 
0 
0.006789163673378514 
-0.004025845420300042 
0.01219076019456797 
0.01660421707194405 
0.0006228539935193709 
0.00199342280370979 
0 
0 
-0.00459642373273935 
0.01267526278167323 
0 
0 
0.004481706975975028 
-0.002568063968445449 
0.01825969614430756 
-0.00689965375559347 
0.002211373276176504 
0.001454364933310383 
-0.0008910291242519462 
-0.003235020741441333 
0.00299209337701216 
0.001712085773773451 
0.002811692104209905 
0.003276256009736889 
-0.01086115955718989 
-0.000503035324754213 
-0.0008545065438496625 
0.01685296049987297 
-0.004107918653941826 
0.005169087662953926 
-0.0003481221180377037 
0.007853871048225377 
0 
0 
0.003543454531552361 
-0.0165179724840572 
0.0243215715196001 
0.008501534924195579 
-0.003753481274428462 
-0.02995575856182608 
0 
-0.00451645609125507 
-0.005585518014474357 
-0.001454605313709508 
0 
-0.002580132899564762 
0.003636267309003621 
-4.257473896461209e-05 
-0.0003332264640152313 
-0.0005745025080877723 
-0.002976507704371526 
0.03246678438154819 
0 
-0.001340376351537912 
-0.0107372323204189 
0.003919332180063853 
0 
-0.006324313094584271 
-0.003824133992586509 
0.002774269413132543 
0 
0.03191544842590231 
-0.004221185598740454 
0 
0.01735161687178831 
-0.004729646239392604 
0.04090654866706107 
0.001536353919936332 
0 
-0.006042477715295539 
0.03392732052256274 
-0.005994069132875594 
0 
-0.005972537470225359 
0.00201914029774836 
-0.002726399221886197 
0.01065612023258839 
0.007386320187908144 
0.01075399057950045 
-0.00814862815920984 
0.001824095533013891 
-0.008363018282333117 
-0.003117726527257108 
0.006964114022472389 
-0.000980888715605764 
0.01030088179689336 
-0.004609740923697007 
0.002314124035051553 
-0.0002111665067652603 
0.004297009352606242 
0.01153449348443485 
0.01630760972518397 
0.002983766020740037 
0.007084499344147508 
0.01258367140227579 
0.008060447563341908 
-0.002498758506692925 
-0.0089931026444515 
0.009862681860607816 
-0.007567694139346463 
-0.00188494503645763 
-0.002527866702290107 
-0.02290812103764717 
0 
-0.004398610994185494 
0 
-0.006435829840571084 
-0.0007371800479131826 
-0.005602343305763238 
0 
0 
0 
-0.006154172547108384 
-0.002027780062210073 
-0.005910967371079895 
-0.007696422786421771 
-0.001443012066064214 
0.002270981422780347 
0.00419747883692531 
-0.008147121041520006 
-0.005222152858377948 
-0.01002586089136256 
-0.02293799370489486 
0.0261293191060373 
-0.02352123659850299 
0.006050002405796782 
-0.0112838229140311 
-0.01220114199410216 
0.00398782410676844 
0.01865458030362321 
-0.009379042979248181 
0.006100740156082308 
0 
-0.01168579421132611 
-0.01557039230649694 
-0.006415604353179094 
0 
0.0009404414291263793 
-0.0009044705857967777 
0.005630869006509501 
-0.02283609869305923 
-0.0146074389963406 
0.01764204700196174 
-0.006586607156649488 
-0.01498699619318108 
0 
0.01137217327218002 
-0.007878843579527806 
-0.001672808334076135 
-0.006971787525415564 
0.003405597669731737 
0.02107136431862355 
-0.00485022471162264 
0.002529566744519131 
0 
-0.001199887110273738 
-0.001368651784033493 
-7.982918232653723e-05 
-0.01536875039223989 
-0.01718009095562552 
-0.00337310857620987 
-0.001068100204030041 
-0.01808229750781673 
0.006104625667330886 
-0.01965340706990561 
-0.005812876745138515 
-0.0009858198994993179 
0.004169818988721246 
-0.02152471103719917 
0.0005697111769607697 
0.004849308142599692 
-0.003569304295491458 
0 
-0.01090467199531701 
-0.002328922975658192 
-0.0009217154486540939 
3.992822319171668e-05 
-0.001213518521781001 
0 
4.743384504624082e-20 
-0.001424441539713925 
-0.0007594867703206643 
-0.0003214570016617111 
-0.0009751311610019513 
-0.0116342085154907 
0.0009504642636742682 
-0.01033236846820294 
-0.001778720044447405 
0.001984520201419119 
0.001021935409433139 
0.005649495052271771 
-0.004858940382025894 
-0.007209521817546497 
0.009609836115390692 
-0.006132154967218074 
0.004536875250184265 
-0.0005871240022533402 
-0.02060062263571764 
0.003362286784241682 
-0.00415374202329086 
-0.0150478989938818 
0.003914396270054395 
0.001869002742356273 
0.003087789911556514 
0.01110850810704522 
0.001869002742356273 
-0.004035121763948465 
0.01045855584484182 
0.001869002742356274 
-0.01236457105080942 
0.005344386269792389 
0.01912940934840359 
0.001869002742356273 
0.001869002742356273 
0.0008610987381830382 
0.01030429075047042 
-0.002638924277186416 
-0.004614777575151595 
0.006380919495885635 
0.01170244524773063 
0.002638897701487224 
0.001869002742356273 
-0.005508594556124624 
0.001527717226190283 
-0.005619468932991542 
0.002231493037463882 
0.001869002742356273 
0.001869002742356273 
-0.007513002123121252 
0.001869002742356273 
0.004796561604370858 
0.005132341624211161 
0.001869002742356273 
0.0006003146619921384 
0.001869002742356273 
-0.003765737628677449 
0.003387019463523949 
0.02070427582034199 
0.006735709890232538 
0.006446247025536496 
0.001869002742356273 
-0.005817825521340522 
0.005768346270969794 
0.01273731987387484 
0.005876409399727974 
0.001869002742356273 
0.001431901553589655 
0.005501238877617662 
0.002017774704362114 
9.257107728692231e-05 
0.003065259145404822 
-0.01921871490886561 
-0.001383656949376062 
-0.01866831097457175 
0.003738005484712547 
0.001869002742356273 
0.0004396255010382392 
0.00747288714831312 
0.001869002742356273 
-0.01840875338183018 
0.001869002742356273 
-0.0004378876149254472 
-0.0229340623115523 
-0.03398928178876041 
0.01751753716640698 
-0.02134097895608315 
0.0003970446218281509 
0.001869002742356273 
0.006035270121545348 
-0.01307015499033875 
-0.005248807530533271 
0.03366200073285822 
-0.01296451834545315 
-0.008155639770937508 
0.005141840928396935 
0.001869002742356273 
1.482873420884685e-05 
-0.0001768557476176861 
0.001869002742356273 
-0.01030498443981012 
0.01161536793831544 
0.001821923718911066 
0.02828598424165719 
0.01492902084121093 
-0.03334431783507756 
0.000817624226329151 
0.001869002742356273 
0.001869002742356273 
-0.001477798547507641 
0.01057107073639248 
0.01594036322623464 
0.001734239461586988 
0.0009018935761631146 
-0.0008331484339287354 
-0.007789140380381201 
0.008479614748996864 
0.002007727733728098 
0.002732382875793113 
0.0021963606664112 
0.03295176875783386 
0.005045718511039524 
-0.009924261242298713 
-0.0347235238996168 
-0.008887147976350615 
0.007702684547504824 
-0.01291514003932944 
-0.004625591376962539 
0.001869002742356273 
-0.01374352277133648 
0.003128596264817248 
0.001869002742356273 
0.00388472005135333 
-0.00840233414891307 
-0.009106582769318507 
0.001255656415935069 
0.008998433547619079 
-0.003600224817596044 
0.004246939535671496 
0.006653149217236222 
-0.007662255125811143 
-0.02877125638677088 
0.003715995873477276 
0.001869002742356273 
0.0008912489617238493 
0.004657481475713991 
0.009817028823572079 
0.001869002742356273 
0.001869002742356273 
0.004782132696316142 
-0.06248198116697413 
-0.0003123810345099209 
0.0001481604219157096 
-0.02458598038037802 
-0.06963900895993044 
0.004382941930979886 
0.001223948201524723 
-0.008207610780523678 
-0.007818601530368905 
-0.008095139244839358 
0.0003879624632683018 
0.007603943349819489 
0.0005422006009336343 
-2.710505431213761e-20 
0.006470629398063488 
0.0131015297123564 
0 
3.388131789017201e-21 
0 
0 
-0.01014121328109652 
-0.003763241696478808 
-0.003356057748662922 
-0.008015644994030537 
0.004442781172572317 
-0.04855728462513548 
-0.013809272167458 
0 
-0.0008433287560978073 
0 
0.006441770560388995 
0.01026673190472772 
-0.002528055227943547 
-1.490777987167569e-19 
0.01168480069459379 
-0.004530058229651811 
-0.000653580709311977 
0.003080166903982717 
0.00240539116026688 
0.00492518750325677 
-0.02337677862328107 
-0.0006300621939068494 
-0.037680278470449 
-0.006072252938145783 
0.01803367873400721 
-0.008290964196524753 
0.01270689171647193 
0.0008310032203582938 
0.0002142289776839497 
-0.009104420476898623 
-0.009227995856137075 
-0.0352944367467048 
0.06055971334431446 
0 
0.01927583908488546 
-0.0004364668476108017 
-0.005012355307396469 
0.002341653300716834 
0.005877608602887054 
-0.01375327992525771 
0.01536864985054488 
4.235164736271502e-20 
0.008822028821134802 
-0.008322492247015732 
0.008717185219391934 
0 
0 
-0.004697712780085576 
-0.001510540517128173 
-2.710505431213761e-20 
-0.009013298249876803 
0.01124957555648887 
0.009173649892385623 
0.01441874655555628 
0.0003508549294470485 
0.001498625034772111 
0.0003775586859358969 
-0.007657162930288761 
0.005819714144951433 
0.01054048040859538 
-0.03016381909311773 
0.08673173091761242 
0.003351650290755924 
0 
0.005085591202886185 
0.01566333055707804 
0.003491459359718869 
-0.008767993039472005 
0.006097753087841531 
0.007331077750556795 
0.04475558883043235 
0 
0.0001885794166529364 
-0.006568968515669847 
0 
-0.01696475098594528 
-0.01376537687567531 
